<?xml version="1.0"?>
<MethodSetup Method="BDT::BDTG">
  <GeneralInfo>
    <Info name="TMVA Release" value="4.2.1 [262657]"/>
    <Info name="ROOT Release" value="6.06/09 [394761]"/>
    <Info name="Creator" value="nckw"/>
    <Info name="Date" value="Sat Sep 29 16:47:48 2018"/>
    <Info name="Host" value="Linux vocms029.cern.ch 2.6.32-642.1.1.el6.x86_64 #1 SMP Wed Jun 1 07:47:00 CEST 2016 x86_64 x86_64 x86_64 GNU/Linux"/>
    <Info name="Dir" value="/afs/cern.ch/work/n/nckw/ttHdiff/CMSSW_8_1_0/src"/>
    <Info name="Training events" value="317594"/>
    <Info name="TrainingTime" value="1.36903843e+02"/>
    <Info name="AnalysisType" value="Classification"/>
  </GeneralInfo>
  <Options>
    <Option name="V" modified="Yes">False</Option>
    <Option name="VerbosityLevel" modified="No">Default</Option>
    <Option name="VarTransform" modified="No">None</Option>
    <Option name="H" modified="Yes">False</Option>
    <Option name="CreateMVAPdfs" modified="No">False</Option>
    <Option name="IgnoreNegWeightsInTraining" modified="No">False</Option>
    <Option name="NTrees" modified="Yes">500</Option>
    <Option name="MaxDepth" modified="Yes">6</Option>
    <Option name="MinNodeSize" modified="No">5%</Option>
    <Option name="nCuts" modified="No">20</Option>
    <Option name="BoostType" modified="Yes">Grad</Option>
    <Option name="AdaBoostR2Loss" modified="No">quadratic</Option>
    <Option name="UseBaggedBoost" modified="Yes">True</Option>
    <Option name="Shrinkage" modified="Yes">1.000000e-01</Option>
    <Option name="AdaBoostBeta" modified="No">5.000000e-01</Option>
    <Option name="UseRandomisedTrees" modified="No">False</Option>
    <Option name="UseNvars" modified="No">4</Option>
    <Option name="UsePoissonNvars" modified="No">True</Option>
    <Option name="BaggedSampleFraction" modified="No">1.000000e-01</Option>
    <Option name="UseYesNoLeaf" modified="No">True</Option>
    <Option name="NegWeightTreatment" modified="No">ignorenegweightsintraining</Option>
    <Option name="Css" modified="No">1.000000e+00</Option>
    <Option name="Cts_sb" modified="No">1.000000e+00</Option>
    <Option name="Ctb_ss" modified="No">1.000000e+00</Option>
    <Option name="Cbb" modified="No">1.000000e+00</Option>
    <Option name="NodePurityLimit" modified="No">5.000000e-01</Option>
    <Option name="SeparationType" modified="No">giniindex</Option>
    <Option name="DoBoostMonitor" modified="No">False</Option>
    <Option name="UseFisherCuts" modified="No">False</Option>
    <Option name="MinLinCorrForFisher" modified="No">8.000000e-01</Option>
    <Option name="UseExclusiveVars" modified="No">False</Option>
    <Option name="DoPreselection" modified="No">False</Option>
    <Option name="SigToBkgFraction" modified="No">1.000000e+00</Option>
    <Option name="PruneMethod" modified="No">nopruning</Option>
    <Option name="PruneStrength" modified="No">0.000000e+00</Option>
    <Option name="PruningValFraction" modified="No">5.000000e-01</Option>
    <Option name="nEventsMin" modified="No">0</Option>
    <Option name="UseBaggedGrad" modified="No">False</Option>
    <Option name="GradBaggingFraction" modified="Yes">1.000000e-01</Option>
    <Option name="UseNTrainEvents" modified="No">0</Option>
    <Option name="NNodesMax" modified="No">0</Option>
  </Options>
  <Variables NVar="19">
    <Variable VarIndex="0" Expression="Njets" Label="Njets" Title="N jets" Unit=" " Internal="Njets" Type="F" Min="3.00000000e+00" Max="1.40000000e+01"/>
    <Variable VarIndex="1" Expression="Nbjets" Label="Nbjets" Title="N bjets" Unit=" " Internal="Nbjets" Type="F" Min="1.00000000e+00" Max="6.00000000e+00"/>
    <Variable VarIndex="2" Expression="scalarHT" Label="scalarHT" Title="HT" Unit="GeV" Internal="scalarHT" Type="F" Min="9.05669937e+01" Max="5.04081689e+03"/>
    <Variable VarIndex="3" Expression="MET" Label="MET" Title="p_{T}^{miss}" Unit="GeV" Internal="MET" Type="F" Min="3.14300925e-01" Max="1.51788269e+03"/>
    <Variable VarIndex="4" Expression="mindphi_gg_jets" Label="mindphi_gg_jets" Title="min #Delta#phi(#gamma#gamma,j)" Unit="" Internal="mindphi_gg_jets" Type="F" Min="3.20492262e-07" Max="3.10040498e+00"/>
    <Variable VarIndex="5" Expression="pho1_ptom" Label="pho1_ptom" Title="p_{T}^{#gamma 1}/m_{#gamma#gamma}" Unit=" " Internal="pho1_ptom" Type="F" Min="3.33002448e-01" Max="1.10463896e+01"/>
    <Variable VarIndex="6" Expression="pho2_ptom" Label="pho2_ptom" Title="p_{T}^{#gamma 2}/m_{#gamma#gamma}" Unit=" " Internal="pho2_ptom" Type="F" Min="2.50002414e-01" Max="5.85814619e+00"/>
    <Variable VarIndex="7" Expression="pho1_eta" Label="pho1_eta" Title="|#eta^{#gamma 1}|" Unit=" " Internal="pho1_eta" Type="F" Min="1.56700855e-06" Max="2.49993277e+00"/>
    <Variable VarIndex="8" Expression="pho2_eta" Label="pho2_eta" Title="|#eta^{#gamma 2}|" Unit=" " Internal="pho2_eta" Type="F" Min="9.93371373e-07" Max="2.49998641e+00"/>
    <Variable VarIndex="9" Expression="pho1_ch_isolation" Label="pho1_ch_isolation" Title="ch_isolation^{#gamma 1}" Unit=" " Internal="pho1_ch_isolation" Type="F" Min="0.00000000e+00" Max="5.65489101e+00"/>
    <Variable VarIndex="10" Expression="pho2_ch_isolation" Label="pho2_ch_isolation" Title="ch_isolation^{#gamma 2}" Unit=" " Internal="pho2_ch_isolation" Type="F" Min="0.00000000e+00" Max="8.27225590e+00"/>
    <Variable VarIndex="11" Expression="j1_pt" Label="j1_pt" Title="p_{T}^{j 1}" Unit="GeV" Internal="j1_pt" Type="F" Min="2.59981327e+01" Max="2.53064185e+03"/>
    <Variable VarIndex="12" Expression="j1_eta" Label="j1_eta" Title="|#eta^{j 1}|" Unit=" " Internal="j1_eta" Type="F" Min="4.36665914e-06" Max="3.99933815e+00"/>
    <Variable VarIndex="13" Expression="j2_pt" Label="j2_pt" Title="p_{T}^{j 2}" Unit="GeV" Internal="j2_pt" Type="F" Min="2.50662975e+01" Max="2.04250134e+03"/>
    <Variable VarIndex="14" Expression="j2_eta" Label="j2_eta" Title="|#eta^{j 2}|" Unit=" " Internal="j2_eta" Type="F" Min="4.65291851e-06" Max="3.99999404e+00"/>
    <Variable VarIndex="15" Expression="j3_pt" Label="j3_pt" Title="p_{T}^{j 3}" Unit="GeV" Internal="j3_pt" Type="F" Min="2.50001621e+01" Max="8.19269287e+02"/>
    <Variable VarIndex="16" Expression="j3_eta" Label="j3_eta" Title="|#eta^{j 3}|" Unit=" " Internal="j3_eta" Type="F" Min="9.04442368e-06" Max="3.99980807e+00"/>
    <Variable VarIndex="17" Expression="j4_pt" Label="j4_pt" Title="p_{T}^{j 4}" Unit="GeV" Internal="j4_pt" Type="F" Min="-9.99000000e+02" Max="5.62082275e+02"/>
    <Variable VarIndex="18" Expression="j4_eta" Label="j4_eta" Title="|#eta^{j 4}|" Unit=" " Internal="j4_eta" Type="F" Min="-9.99000000e+02" Max="3.99982858e+00"/>
  </Variables>
  <Spectators NSpec="0"/>
  <Classes NClass="2">
    <Class Name="Signal" Index="0"/>
    <Class Name="Background" Index="1"/>
  </Classes>
  <Transformations NTransformations="0"/>
  <MVAPdfs/>
  <Weights NTrees="500" AnalysisType="1">
    <BinaryTree type="DecisionTree" boostWeight="1.0000000000000000e+00" itree="0">
      <Node pos="s" depth="0" NCoef="0" IVar="0" Cut="4.2857141494750977e+00" cType="1" res="1.3980749994516373e-02" rms="4.9980449676513672e-01" purity="5.1398074626922607e-01" nType="0">
        <Node pos="l" depth="1" NCoef="0" IVar="17" Cut="-9.3205596923828125e+02" cType="1" res="-2.2142577171325684e-01" rms="4.4829747080802917e-01" purity="2.7857422828674316e-01" nType="0">
          <Node pos="l" depth="2" NCoef="0" IVar="13" Cut="5.5738483428955078e+01" cType="1" res="0.0000000000000000e+00" rms="0.0000000000000000e+00" purity="1.3656400144100189e-01" nType="0">
            <Node pos="l" depth="3" NCoef="0" IVar="-1" Cut="0.0000000000000000e+00" cType="1" res="-1.4837224734947085e-03" rms="2.5653076171875000e-01" purity="7.0824094116687775e-02" nType="-99"/>
            <Node pos="r" depth="3" NCoef="0" IVar="8" Cut="9.5221114158630371e-01" cType="1" res="0.0000000000000000e+00" rms="0.0000000000000000e+00" purity="2.5063958764076233e-01" nType="0">
              <Node pos="l" depth="4" NCoef="0" IVar="-1" Cut="0.0000000000000000e+00" cType="1" res="-2.0672201644629240e-03" rms="4.7059956192970276e-01" purity="3.3107385039329529e-01" nType="-99"/>
              <Node pos="r" depth="4" NCoef="0" IVar="-1" Cut="0.0000000000000000e+00" cType="1" res="-3.7420692387968302e-03" rms="3.6133399605751038e-01" purity="1.5440234541893005e-01" nType="-99"/>
            </Node>
          </Node>
          <Node pos="r" depth="2" NCoef="0" IVar="6" Cut="4.6295759081840515e-01" cType="1" res="0.0000000000000000e+00" rms="0.0000000000000000e+00" purity="4.5250552892684937e-01" nType="0">
            <Node pos="l" depth="3" NCoef="0" IVar="2" Cut="3.7475079345703125e+02" cType="1" res="0.0000000000000000e+00" rms="0.0000000000000000e+00" purity="3.3602654933929443e-01" nType="0">
              <Node pos="l" depth="4" NCoef="0" IVar="-1" Cut="0.0000000000000000e+00" cType="1" res="-1.0478091426193714e-03" rms="4.1224244236946106e-01" purity="2.1705800294876099e-01" nType="-99"/>
              <Node pos="r" depth="4" NCoef="0" IVar="-1" Cut="0.0000000000000000e+00" cType="1" res="-4.1829477413557470e-04" rms="4.9866130948066711e-01" purity="4.6343639492988586e-01" nType="-99"/>
            </Node>
            <Node pos="r" depth="3" NCoef="0" IVar="-1" Cut="0.0000000000000000e+00" cType="1" res="4.5922775752842426e-03" rms="4.3501439690589905e-01" purity="7.4650049209594727e-01" nType="-99"/>
          </Node>
        </Node>
        <Node pos="r" depth="1" NCoef="0" IVar="5" Cut="7.2765791416168213e-01" cType="1" res="3.0986067652702332e-01" rms="3.9241096377372742e-01" purity="8.0986064672470093e-01" nType="0">
          <Node pos="l" depth="2" NCoef="0" IVar="1" Cut="1.1428571939468384e+00" cType="1" res="2.0686115324497223e-01" rms="4.5520156621932983e-01" purity="7.0686119794845581e-01" nType="0">
            <Node pos="l" depth="3" NCoef="0" IVar="-1" Cut="0.0000000000000000e+00" cType="1" res="1.4489439781755209e-03" rms="4.9130266904830933e-01" purity="5.9285295009613037e-01" nType="-99"/>
            <Node pos="r" depth="3" NCoef="0" IVar="-1" Cut="0.0000000000000000e+00" cType="1" res="5.0743613392114639e-03" rms="3.6334985494613647e-01" purity="8.4347766637802124e-01" nType="-99"/>
          </Node>
          <Node pos="r" depth="2" NCoef="0" IVar="0" Cut="5.3333334922790527e+00" cType="1" res="3.9175656437873840e-01" rms="3.1068763136863708e-01" purity="8.9175653457641602e-01" nType="0">
            <Node pos="l" depth="3" NCoef="0" IVar="-1" Cut="0.0000000000000000e+00" cType="1" res="5.0413412973284721e-03" rms="3.9217442274093628e-01" purity="8.1015998125076294e-01" nType="-99"/>
            <Node pos="r" depth="3" NCoef="0" IVar="6" Cut="4.8254048824310303e-01" cType="1" res="4.4010421633720398e-01" rms="2.3729364573955536e-01" purity="9.4010424613952637e-01" nType="0">
              <Node pos="l" depth="4" NCoef="0" IVar="-1" Cut="0.0000000000000000e+00" cType="1" res="6.0311825945973396e-03" rms="2.7040043473243713e-01" purity="9.2057532072067261e-01" nType="-99"/>
              <Node pos="r" depth="4" NCoef="0" IVar="-1" Cut="0.0000000000000000e+00" cType="1" res="6.8660355173051357e-03" rms="1.8156261742115021e-01" purity="9.6587014198303223e-01" nType="-99"/>
            </Node>
          </Node>
        </Node>
      </Node>
    </BinaryTree>
    <BinaryTree type="DecisionTree" boostWeight="1.0000000000000000e+00" itree="1">
      <Node pos="s" depth="0" NCoef="0" IVar="0" Cut="4.4285712242126465e+00" cType="1" res="-1.8347382545471191e-02" rms="4.9872377514839172e-01" purity="4.8244026303291321e-01" nType="0">
        <Node pos="l" depth="1" NCoef="0" IVar="17" Cut="-9.3308953857421875e+02" cType="1" res="-2.3734891414642334e-01" rms="4.3950337171554565e-01" purity="2.6227512955665588e-01" nType="0">
          <Node pos="l" depth="2" NCoef="0" IVar="6" Cut="4.3465027213096619e-01" cType="1" res="0.0000000000000000e+00" rms="0.0000000000000000e+00" purity="1.2251127511262894e-01" nType="0">
            <Node pos="l" depth="3" NCoef="0" IVar="11" Cut="8.9351005554199219e+01" cType="1" res="0.0000000000000000e+00" rms="0.0000000000000000e+00" purity="7.7916443347930908e-02" nType="0">
              <Node pos="l" depth="4" NCoef="0" IVar="-1" Cut="0.0000000000000000e+00" cType="1" res="-1.1452453909441829e-03" rms="2.0245726406574249e-01" purity="4.2815737426280975e-02" nType="-99"/>
              <Node pos="r" depth="4" NCoef="0" IVar="-1" Cut="0.0000000000000000e+00" cType="1" res="-3.2885598484426737e-03" rms="3.5164973139762878e-01" purity="1.4456905424594879e-01" nType="-99"/>
            </Node>
            <Node pos="r" depth="3" NCoef="0" IVar="-1" Cut="0.0000000000000000e+00" cType="1" res="-2.4380111135542393e-03" rms="4.5361125469207764e-01" purity="2.8948494791984558e-01" nType="-99"/>
          </Node>
          <Node pos="r" depth="2" NCoef="0" IVar="2" Cut="3.8858624267578125e+02" cType="1" res="0.0000000000000000e+00" rms="0.0000000000000000e+00" purity="4.4510853290557861e-01" nType="0">
            <Node pos="l" depth="3" NCoef="0" IVar="7" Cut="8.3311504125595093e-01" cType="1" res="0.0000000000000000e+00" rms="0.0000000000000000e+00" purity="2.5094795227050781e-01" nType="0">
              <Node pos="l" depth="4" NCoef="0" IVar="-1" Cut="0.0000000000000000e+00" cType="1" res="-8.7615300435572863e-04" rms="4.7831895947456360e-01" purity="3.5420018434524536e-01" nType="-99"/>
              <Node pos="r" depth="4" NCoef="0" IVar="-1" Cut="0.0000000000000000e+00" cType="1" res="-1.0822163894772530e-03" rms="3.7996196746826172e-01" purity="1.7516064643859863e-01" nType="-99"/>
            </Node>
            <Node pos="r" depth="3" NCoef="0" IVar="3" Cut="1.0614131927490234e+02" cType="1" res="0.0000000000000000e+00" rms="0.0000000000000000e+00" purity="6.2940049171447754e-01" nType="0">
              <Node pos="l" depth="4" NCoef="0" IVar="-1" Cut="0.0000000000000000e+00" cType="1" res="8.1454601604491472e-04" rms="4.9816817045211792e-01" purity="5.4036480188369751e-01" nType="-99"/>
              <Node pos="r" depth="4" NCoef="0" IVar="-1" Cut="0.0000000000000000e+00" cType="1" res="4.2450185865163803e-03" rms="4.5196136832237244e-01" purity="7.1324867010116577e-01" nType="-99"/>
            </Node>
          </Node>
        </Node>
        <Node pos="r" depth="1" NCoef="0" IVar="1" Cut="1.2380952835083008e+00" cType="1" res="2.6818814873695374e-01" rms="4.2019891738891602e-01" purity="7.7049821615219116e-01" nType="0">
          <Node pos="l" depth="2" NCoef="0" IVar="8" Cut="1.3084263801574707e+00" cType="1" res="1.5668013691902161e-01" rms="4.7389400005340576e-01" purity="6.5854007005691528e-01" nType="0">
            <Node pos="l" depth="3" NCoef="0" IVar="5" Cut="7.2412371635437012e-01" cType="1" res="2.5658959150314331e-01" rms="4.2766541242599487e-01" purity="7.5859111547470093e-01" nType="0">
              <Node pos="l" depth="4" NCoef="0" IVar="-1" Cut="0.0000000000000000e+00" cType="1" res="2.3970713373273611e-03" rms="4.8132827877998352e-01" purity="6.3536286354064941e-01" nType="-99"/>
              <Node pos="r" depth="4" NCoef="0" IVar="-1" Cut="0.0000000000000000e+00" cType="1" res="5.7347994297742844e-03" rms="3.6400881409645081e-01" purity="8.4273225069046021e-01" nType="-99"/>
            </Node>
            <Node pos="r" depth="3" NCoef="0" IVar="-1" Cut="0.0000000000000000e+00" cType="1" res="-3.4064063220284879e-04" rms="4.9842104315757751e-01" purity="4.6340152621269226e-01" nType="-99"/>
          </Node>
          <Node pos="r" depth="2" NCoef="0" IVar="6" Cut="3.5547193884849548e-01" cType="1" res="3.8254097104072571e-01" rms="3.1860023736953735e-01" purity="8.8531261682510376e-01" nType="0">
            <Node pos="l" depth="3" NCoef="0" IVar="-1" Cut="0.0000000000000000e+00" cType="1" res="3.3928537741303444e-03" rms="4.2353680729866028e-01" purity="7.6571464538574219e-01" nType="-99"/>
            <Node pos="r" depth="3" NCoef="0" IVar="5" Cut="8.5087174177169800e-01" cType="1" res="4.3030470609664917e-01" rms="2.4979570508003235e-01" purity="9.3309998512268066e-01" nType="0">
              <Node pos="l" depth="4" NCoef="0" IVar="-1" Cut="0.0000000000000000e+00" cType="1" res="5.0801266916096210e-03" rms="3.1456500291824341e-01" purity="8.8863897323608398e-01" nType="-99"/>
              <Node pos="r" depth="4" NCoef="0" IVar="-1" Cut="0.0000000000000000e+00" cType="1" res="7.1433642879128456e-03" rms="1.0264290869235992e-01" purity="9.8934936523437500e-01" nType="-99"/>
            </Node>
          </Node>
        </Node>
      </Node>
    </BinaryTree>
    <BinaryTree type="DecisionTree" boostWeight="1.0000000000000000e+00" itree="2">
      <Node pos="s" depth="0" NCoef="0" IVar="17" Cut="3.3214233398437500e+01" cType="1" res="3.1351612415164709e-03" rms="4.9804124236106873e-01" purity="5.0463461875915527e-01" nType="0">
        <Node pos="l" depth="1" NCoef="0" IVar="2" Cut="3.5834796142578125e+02" cType="1" res="-2.9481601715087891e-01" rms="4.0249705314636230e-01" purity="2.0424641668796539e-01" nType="0">
          <Node pos="l" depth="2" NCoef="0" IVar="15" Cut="3.1997652053833008e+01" cType="1" res="-3.9910787343978882e-01" rms="2.9911985993385315e-01" purity="9.9527731537818909e-02" nType="0">
            <Node pos="l" depth="3" NCoef="0" IVar="-1" Cut="0.0000000000000000e+00" cType="1" res="-1.1833810713142157e-03" rms="2.0787091553211212e-01" purity="4.5271214097738266e-02" nType="-99"/>
            <Node pos="r" depth="3" NCoef="0" IVar="12" Cut="1.1380597352981567e+00" cType="1" res="-3.1227880716323853e-01" rms="3.8904255628585815e-01" purity="1.8646271526813507e-01" nType="0">
              <Node pos="l" depth="4" NCoef="0" IVar="-1" Cut="0.0000000000000000e+00" cType="1" res="-2.7695202734321356e-03" rms="4.3795883655548096e-01" purity="2.5986841320991516e-01" nType="-99"/>
              <Node pos="r" depth="4" NCoef="0" IVar="-1" Cut="0.0000000000000000e+00" cType="1" res="-1.5961738536134362e-03" rms="3.2211160659790039e-01" purity="1.1778175085783005e-01" nType="-99"/>
            </Node>
          </Node>
          <Node pos="r" depth="2" NCoef="0" IVar="6" Cut="4.3992120027542114e-01" cType="1" res="-1.2807792425155640e-01" rms="4.8246568441390991e-01" purity="3.7166687846183777e-01" nType="0">
            <Node pos="l" depth="3" NCoef="0" IVar="-1" Cut="0.0000000000000000e+00" cType="1" res="-1.3168235309422016e-03" rms="4.3848279118537903e-01" purity="2.6067715883255005e-01" nType="-99"/>
            <Node pos="r" depth="3" NCoef="0" IVar="-1" Cut="0.0000000000000000e+00" cType="1" res="3.0762485694140196e-03" rms="4.8036161065101624e-01" purity="6.3545912504196167e-01" nType="-99"/>
          </Node>
        </Node>
        <Node pos="r" depth="1" NCoef="0" IVar="0" Cut="4.4285712242126465e+00" cType="1" res="2.7660778164863586e-01" rms="4.1321745514869690e-01" purity="7.8034406900405884e-01" nType="0">
          <Node pos="l" depth="2" NCoef="0" IVar="5" Cut="7.1853458881378174e-01" cType="1" res="0.0000000000000000e+00" rms="0.0000000000000000e+00" purity="5.9207069873809814e-01" nType="0">
            <Node pos="l" depth="3" NCoef="0" IVar="-1" Cut="0.0000000000000000e+00" cType="1" res="-2.0302840857766569e-04" rms="4.9941289424896240e-01" purity="4.7842687368392944e-01" nType="-99"/>
            <Node pos="r" depth="3" NCoef="0" IVar="-1" Cut="0.0000000000000000e+00" cType="1" res="4.6194293536245823e-03" rms="4.4341495633125305e-01" purity="7.3024928569793701e-01" nType="-99"/>
          </Node>
          <Node pos="r" depth="2" NCoef="0" IVar="6" Cut="3.7388181686401367e-01" cType="1" res="3.3141008019447327e-01" rms="3.6986687779426575e-01" purity="8.3587908744812012e-01" nType="0">
            <Node pos="l" depth="3" NCoef="0" IVar="1" Cut="1.1904761791229248e+00" cType="1" res="2.4225579202175140e-01" rms="4.3474957346916199e-01" purity="7.4616533517837524e-01" nType="0">
              <Node pos="l" depth="4" NCoef="0" IVar="-1" Cut="0.0000000000000000e+00" cType="1" res="2.0119252149015665e-03" rms="4.8211368918418884e-01" purity="6.3092076778411865e-01" nType="-99"/>
              <Node pos="r" depth="4" NCoef="0" IVar="-1" Cut="0.0000000000000000e+00" cType="1" res="5.1812822930514812e-03" rms="3.4861290454864502e-01" purity="8.5836094617843628e-01" nType="-99"/>
            </Node>
            <Node pos="r" depth="3" NCoef="0" IVar="3" Cut="1.1749134063720703e+02" cType="1" res="3.8911494612693787e-01" rms="3.0746874213218689e-01" purity="8.9394611120223999e-01" nType="0">
              <Node pos="l" depth="4" NCoef="0" IVar="-1" Cut="0.0000000000000000e+00" cType="1" res="4.9142586067318916e-03" rms="3.7495046854019165e-01" purity="8.3034867048263550e-01" nType="-99"/>
              <Node pos="r" depth="4" NCoef="0" IVar="7" Cut="8.3283895254135132e-01" cType="1" res="4.3241339921951294e-01" rms="2.4110227823257446e-01" purity="9.3788844347000122e-01" nType="0">
                <Node pos="l" depth="5" NCoef="0" IVar="-1" Cut="0.0000000000000000e+00" cType="1" res="6.7954831756651402e-03" rms="1.8800310790538788e-01" purity="9.6323686838150024e-01" nType="-99"/>
                <Node pos="r" depth="5" NCoef="0" IVar="-1" Cut="0.0000000000000000e+00" cType="1" res="6.1576059088110924e-03" rms="3.0081459879875183e-01" purity="8.9918798208236694e-01" nType="-99"/>
              </Node>
            </Node>
          </Node>
        </Node>
      </Node>
    </BinaryTree>
    <BinaryTree type="DecisionTree" boostWeight="1.0000000000000000e+00" itree="3">
      <Node pos="s" depth="0" NCoef="0" IVar="17" Cut="2.9108072280883789e+01" cType="1" res="1.0452284477651119e-02" rms="4.9705934524536133e-01" purity="5.1282870769500732e-01" nType="0">
        <Node pos="l" depth="1" NCoef="0" IVar="3" Cut="1.3886521911621094e+02" cType="1" res="-2.9841506481170654e-01" rms="3.9919981360435486e-01" purity="1.9973193109035492e-01" nType="0">
          <Node pos="l" depth="2" NCoef="0" IVar="3" Cut="8.6188346862792969e+01" cType="1" res="-3.5202306509017944e-01" rms="3.5264110565185547e-01" purity="1.4595031738281250e-01" nType="0">
            <Node pos="l" depth="3" NCoef="0" IVar="15" Cut="3.2958106994628906e+01" cType="1" res="-4.0877225995063782e-01" rms="2.8479701280593872e-01" purity="8.9194484055042267e-02" nType="0">
              <Node pos="l" depth="4" NCoef="0" IVar="-1" Cut="0.0000000000000000e+00" cType="1" res="-1.2621990172192454e-03" rms="2.1303313970565796e-01" purity="4.7670815140008926e-02" nType="-99"/>
              <Node pos="r" depth="4" NCoef="0" IVar="-1" Cut="0.0000000000000000e+00" cType="1" res="-4.4938945211470127e-03" rms="3.7517905235290527e-01" purity="1.7010954022407532e-01" nType="-99"/>
            </Node>
            <Node pos="r" depth="3" NCoef="0" IVar="-1" Cut="0.0000000000000000e+00" cType="1" res="-1.1446432908996940e-03" rms="4.4894564151763916e-01" purity="2.8143581748008728e-01" nType="-99"/>
          </Node>
          <Node pos="r" depth="2" NCoef="0" IVar="-1" Cut="0.0000000000000000e+00" cType="1" res="1.2451644579414278e-04" rms="4.9905490875244141e-01" purity="5.1115894317626953e-01" nType="-99"/>
        </Node>
        <Node pos="r" depth="1" NCoef="0" IVar="1" Cut="1.1904761791229248e+00" cType="1" res="2.2918504476547241e-01" rms="4.4020110368728638e-01" purity="7.3455667495727539e-01" nType="0">
          <Node pos="l" depth="2" NCoef="0" IVar="0" Cut="4.2857141494750977e+00" cType="1" res="1.1738999187946320e-01" rms="4.8368823528289795e-01" purity="6.2154626846313477e-01" nType="0">
            <Node pos="l" depth="3" NCoef="0" IVar="14" Cut="9.5062011480331421e-01" cType="1" res="0.0000000000000000e+00" rms="0.0000000000000000e+00" purity="4.3831750750541687e-01" nType="0">
              <Node pos="l" depth="4" NCoef="0" IVar="-1" Cut="0.0000000000000000e+00" cType="1" res="2.0395719911903143e-03" rms="4.8952105641365051e-01" purity="5.9912353754043579e-01" nType="-99"/>
              <Node pos="r" depth="4" NCoef="0" IVar="-1" Cut="0.0000000000000000e+00" cType="1" res="-1.0882124770432711e-03" rms="4.6069630980491638e-01" purity="3.0739635229110718e-01" nType="-99"/>
            </Node>
            <Node pos="r" depth="3" NCoef="0" IVar="3" Cut="1.1202131652832031e+02" cType="1" res="2.2098603844642639e-01" rms="4.4485214352607727e-01" purity="7.2646814584732056e-01" nType="0">
              <Node pos="l" depth="4" NCoef="0" IVar="-1" Cut="0.0000000000000000e+00" cType="1" res="1.4919487293809652e-03" rms="4.8989531397819519e-01" purity="5.9663581848144531e-01" nType="-99"/>
              <Node pos="r" depth="4" NCoef="0" IVar="7" Cut="5.9525465965270996e-01" cType="1" res="3.4431648254394531e-01" rms="3.5555502772331238e-01" purity="8.5110539197921753e-01" nType="0">
                <Node pos="l" depth="5" NCoef="0" IVar="-1" Cut="0.0000000000000000e+00" cType="1" res="6.1129694804549217e-03" rms="2.9070380330085754e-01" purity="9.0652406215667725e-01" nType="-99"/>
                <Node pos="r" depth="5" NCoef="0" IVar="-1" Cut="0.0000000000000000e+00" cType="1" res="5.1622162573039532e-03" rms="3.9973509311676025e-01" purity="7.9985398054122925e-01" nType="-99"/>
              </Node>
            </Node>
          </Node>
          <Node pos="r" depth="2" NCoef="0" IVar="6" Cut="3.8636401295661926e-01" cType="1" res="3.6836233735084534e-01" rms="3.2989296317100525e-01" purity="8.7524676322937012e-01" nType="0">
            <Node pos="l" depth="3" NCoef="0" IVar="-1" Cut="0.0000000000000000e+00" cType="1" res="4.3622567318379879e-03" rms="3.9015632867813110e-01" purity="8.1202083826065063e-01" nType="-99"/>
            <Node pos="r" depth="3" NCoef="0" IVar="3" Cut="1.4963497924804688e+02" cType="1" res="4.1815602779388428e-01" rms="2.6193234324455261e-01" purity="9.2571234703063965e-01" nType="0">
              <Node pos="l" depth="4" NCoef="0" IVar="-1" Cut="0.0000000000000000e+00" cType="1" res="5.7674935087561607e-03" rms="2.9894936084747314e-01" purity="9.0068119764328003e-01" nType="-99"/>
              <Node pos="r" depth="4" NCoef="0" IVar="-1" Cut="0.0000000000000000e+00" cType="1" res="7.0591880939900875e-03" rms="1.8936377763748169e-01" purity="9.6263659000396729e-01" nType="-99"/>
            </Node>
          </Node>
        </Node>
      </Node>
    </BinaryTree>
    <BinaryTree type="DecisionTree" boostWeight="1.0000000000000000e+00" itree="4">
      <Node pos="s" depth="0" NCoef="0" IVar="18" Cut="-9.5123828125000000e+02" cType="1" res="-1.6979860141873360e-02" rms="4.9606668949127197e-01" purity="4.8598134517669678e-01" nType="0">
        <Node pos="l" depth="1" NCoef="0" IVar="6" Cut="3.7117853760719299e-01" cType="1" res="0.0000000000000000e+00" rms="0.0000000000000000e+00" purity="1.4543803036212921e-01" nType="0">
          <Node pos="l" depth="2" NCoef="0" IVar="-1" Cut="0.0000000000000000e+00" cType="1" res="-1.3033676659688354e-03" rms="2.9418897628784180e-01" purity="9.5568217337131500e-02" nType="-99"/>
          <Node pos="r" depth="2" NCoef="0" IVar="11" Cut="1.0275627136230469e+02" cType="1" res="0.0000000000000000e+00" rms="0.0000000000000000e+00" purity="2.1376147866249084e-01" nType="0">
            <Node pos="l" depth="3" NCoef="0" IVar="-1" Cut="0.0000000000000000e+00" cType="1" res="-1.6636826330795884e-03" rms="3.4487795829772949e-01" purity="1.3799558579921722e-01" nType="-99"/>
            <Node pos="r" depth="3" NCoef="0" IVar="-1" Cut="0.0000000000000000e+00" cType="1" res="-4.1591809131205082e-03" rms="4.7445991635322571e-01" purity="3.4311872720718384e-01" nType="-99"/>
          </Node>
        </Node>
        <Node pos="r" depth="1" NCoef="0" IVar="15" Cut="5.1590885162353516e+01" cType="1" res="1.5380470454692841e-01" rms="4.7136631608009338e-01" purity="6.6014337539672852e-01" nType="0">
          <Node pos="l" depth="2" NCoef="0" IVar="1" Cut="1.1428571939468384e+00" cType="1" res="-5.1675941795110703e-02" rms="4.9547734856605530e-01" purity="4.5122256875038147e-01" nType="0">
            <Node pos="l" depth="3" NCoef="0" IVar="14" Cut="1.7144515514373779e+00" cType="1" res="-1.6223642230033875e-01" rms="4.7206497192382812e-01" purity="3.3958619832992554e-01" nType="0">
              <Node pos="l" depth="4" NCoef="0" IVar="-1" Cut="0.0000000000000000e+00" cType="1" res="-1.0419746395200491e-03" rms="4.9629294872283936e-01" purity="4.5294949412345886e-01" nType="-99"/>
              <Node pos="r" depth="4" NCoef="0" IVar="-1" Cut="0.0000000000000000e+00" cType="1" res="-1.0891011916100979e-03" rms="3.8256409764289856e-01" purity="1.7968042194843292e-01" nType="-99"/>
            </Node>
            <Node pos="r" depth="3" NCoef="0" IVar="-1" Cut="0.0000000000000000e+00" cType="1" res="2.8985170647501945e-03" rms="4.5066431164741516e-01" purity="7.1214431524276733e-01" nType="-99"/>
          </Node>
          <Node pos="r" depth="2" NCoef="0" IVar="6" Cut="4.5586368441581726e-01" cType="1" res="2.5194844603538513e-01" rms="4.2573824524879456e-01" purity="7.5993031263351440e-01" nType="0">
            <Node pos="l" depth="3" NCoef="0" IVar="1" Cut="1.1904761791229248e+00" cType="1" res="1.7615872621536255e-01" rms="4.6402341127395630e-01" purity="6.8280810117721558e-01" nType="0">
              <Node pos="l" depth="4" NCoef="0" IVar="16" Cut="1.1424155235290527e+00" cType="1" res="7.3637053370475769e-02" rms="4.9251651763916016e-01" purity="5.7856523990631104e-01" nType="0">
                <Node pos="l" depth="5" NCoef="0" IVar="-1" Cut="0.0000000000000000e+00" cType="1" res="3.1869905069470406e-03" rms="4.6111443638801575e-01" purity="6.9067794084548950e-01" nType="-99"/>
                <Node pos="r" depth="5" NCoef="0" IVar="-1" Cut="0.0000000000000000e+00" cType="1" res="-1.0140709346160293e-03" rms="4.9573764204978943e-01" purity="4.4526147842407227e-01" nType="-99"/>
              </Node>
              <Node pos="r" depth="4" NCoef="0" IVar="6" Cut="3.4804299473762512e-01" cType="1" res="2.9691866040229797e-01" rms="3.9528587460517883e-01" purity="8.0559545755386353e-01" nType="0">
                <Node pos="l" depth="5" NCoef="0" IVar="-1" Cut="0.0000000000000000e+00" cType="1" res="3.8591814227402210e-03" rms="4.1811785101890564e-01" purity="7.7315413951873779e-01" nType="-99"/>
                <Node pos="r" depth="5" NCoef="0" IVar="-1" Cut="0.0000000000000000e+00" cType="1" res="4.3518301099538803e-03" rms="3.6613348126411438e-01" purity="8.4047418832778931e-01" nType="-99"/>
              </Node>
            </Node>
            <Node pos="r" depth="3" NCoef="0" IVar="7" Cut="1.0708917379379272e+00" cType="1" res="3.6818763613700867e-01" rms="3.2662910223007202e-01" purity="8.7821304798126221e-01" nType="0">
              <Node pos="l" depth="4" NCoef="0" IVar="1" Cut="1.1904761791229248e+00" cType="1" res="4.1866597533226013e-01" rms="2.5647565722465515e-01" purity="9.2893278598785400e-01" nType="0">
                <Node pos="l" depth="5" NCoef="0" IVar="-1" Cut="0.0000000000000000e+00" cType="1" res="6.2736929394304752e-03" rms="3.1016460061073303e-01" purity="8.9193141460418701e-01" nType="-99"/>
                <Node pos="r" depth="5" NCoef="0" IVar="-1" Cut="0.0000000000000000e+00" cType="1" res="6.8287150934338570e-03" rms="1.6923792660236359e-01" purity="9.7045725584030151e-01" nType="-99"/>
              </Node>
              <Node pos="r" depth="4" NCoef="0" IVar="-1" Cut="0.0000000000000000e+00" cType="1" res="2.2521561477333307e-03" rms="4.2386591434478760e-01" purity="7.6490688323974609e-01" nType="-99"/>
            </Node>
          </Node>
        </Node>
      </Node>
    </BinaryTree>
    <BinaryTree type="DecisionTree" boostWeight="1.0000000000000000e+00" itree="5">
      <Node pos="s" depth="0" NCoef="0" IVar="17" Cut="3.3214233398437500e+01" cType="1" res="1.8402405083179474e-02" rms="4.9499979615211487e-01" purity="5.2238833904266357e-01" nType="0">
        <Node pos="l" depth="1" NCoef="0" IVar="0" Cut="3.2380952835083008e+00" cType="1" res="-2.5342458486557007e-01" rms="4.2813357710838318e-01" purity="2.4403908848762512e-01" nType="0">
          <Node pos="l" depth="2" NCoef="0" IVar="3" Cut="1.3130921936035156e+02" cType="1" res="0.0000000000000000e+00" rms="0.0000000000000000e+00" purity="1.5395483374595642e-01" nType="0">
            <Node pos="l" depth="3" NCoef="0" IVar="13" Cut="5.8502326965332031e+01" cType="1" res="0.0000000000000000e+00" rms="0.0000000000000000e+00" purity="1.0614430904388428e-01" nType="0">
              <Node pos="l" depth="4" NCoef="0" IVar="-1" Cut="0.0000000000000000e+00" cType="1" res="-1.6512037254869938e-03" rms="2.5939369201660156e-01" purity="7.2445124387741089e-02" nType="-99"/>
              <Node pos="r" depth="4" NCoef="0" IVar="-1" Cut="0.0000000000000000e+00" cType="1" res="-2.8171159792691469e-03" rms="3.7417674064636230e-01" purity="1.6830164194107056e-01" nType="-99"/>
            </Node>
            <Node pos="r" depth="3" NCoef="0" IVar="-1" Cut="0.0000000000000000e+00" cType="1" res="-8.7496143532916903e-04" rms="4.7965949773788452e-01" purity="3.5910964012145996e-01" nType="-99"/>
          </Node>
          <Node pos="r" depth="2" NCoef="0" IVar="11" Cut="8.3526901245117188e+01" cType="1" res="-7.4654661118984222e-02" rms="4.9303314089775085e-01" purity="4.2677685618400574e-01" nType="0">
            <Node pos="l" depth="3" NCoef="0" IVar="-1" Cut="0.0000000000000000e+00" cType="1" res="-1.0778640862554312e-03" rms="4.4897884130477905e-01" purity="2.8191447257995605e-01" nType="-99"/>
            <Node pos="r" depth="3" NCoef="0" IVar="-1" Cut="0.0000000000000000e+00" cType="1" res="2.4538690922781825e-04" rms="4.9836221337318420e-01" purity="5.1376861333847046e-01" nType="-99"/>
          </Node>
        </Node>
        <Node pos="r" depth="1" NCoef="0" IVar="14" Cut="2.4754965305328369e+00" cType="1" res="2.5506871938705444e-01" rms="4.2240232229232788e-01" purity="7.6473325490951538e-01" nType="0">
          <Node pos="l" depth="2" NCoef="0" IVar="6" Cut="3.8630521297454834e-01" cType="1" res="2.8805598616600037e-01" rms="4.0001690387725830e-01" purity="7.9795444011688232e-01" nType="0">
            <Node pos="l" depth="3" NCoef="0" IVar="1" Cut="1.2380952835083008e+00" cType="1" res="1.9351866841316223e-01" rms="4.5644116401672363e-01" purity="7.0154923200607300e-01" nType="0">
              <Node pos="l" depth="4" NCoef="0" IVar="-1" Cut="0.0000000000000000e+00" cType="1" res="1.5991190448403358e-03" rms="4.8909562826156616e-01" purity="5.9843850135803223e-01" nType="-99"/>
              <Node pos="r" depth="4" NCoef="0" IVar="-1" Cut="0.0000000000000000e+00" cType="1" res="3.9117177948355675e-03" rms="3.9887115359306335e-01" purity="8.0145907402038574e-01" nType="-99"/>
            </Node>
            <Node pos="r" depth="3" NCoef="0" IVar="0" Cut="4.3809523582458496e+00" cType="1" res="3.5851421952247620e-01" rms="3.3521908521652222e-01" purity="8.6980479955673218e-01" nType="0">
              <Node pos="l" depth="4" NCoef="0" IVar="-1" Cut="0.0000000000000000e+00" cType="1" res="3.8694567047059536e-03" rms="4.4560518860816956e-01" purity="7.2520917654037476e-01" nType="-99"/>
              <Node pos="r" depth="4" NCoef="0" IVar="6" Cut="5.1619488000869751e-01" cType="1" res="3.9339303970336914e-01" rms="2.9109564423561096e-01" purity="9.0596330165863037e-01" nType="0">
                <Node pos="l" depth="5" NCoef="0" IVar="-1" Cut="0.0000000000000000e+00" cType="1" res="5.0088088028132915e-03" rms="3.4986993670463562e-01" purity="8.5659289360046387e-01" nType="-99"/>
                <Node pos="r" depth="5" NCoef="0" IVar="16" Cut="9.5041602849960327e-01" cType="1" res="4.4108387827873230e-01" rms="2.0652215182781219e-01" purity="9.5514422655105591e-01" nType="0">
                  <Node pos="l" depth="6" NCoef="0" IVar="-1" Cut="0.0000000000000000e+00" cType="1" res="6.7878672853112221e-03" rms="1.4224144816398621e-01" purity="9.7921270132064819e-01" nType="-99"/>
                  <Node pos="r" depth="6" NCoef="0" IVar="-1" Cut="0.0000000000000000e+00" cType="1" res="6.4594214782118797e-03" rms="2.5166210532188416e-01" purity="9.3175601959228516e-01" nType="-99"/>
                </Node>
              </Node>
            </Node>
          </Node>
          <Node pos="r" depth="2" NCoef="0" IVar="-1" Cut="0.0000000000000000e+00" cType="1" res="-1.0904313239734620e-04" rms="4.9725145101547241e-01" purity="4.9021559953689575e-01" nType="-99"/>
        </Node>
      </Node>
    </BinaryTree>
    <BinaryTree type="DecisionTree" boostWeight="1.0000000000000000e+00" itree="6">
      <Node pos="s" depth="0" NCoef="0" IVar="0" Cut="4.4285712242126465e+00" cType="1" res="7.2552184574306011e-03" rms="4.9417957663536072e-01" purity="5.1185822486877441e-01" nType="0">
        <Node pos="l" depth="1" NCoef="0" IVar="15" Cut="4.7775409698486328e+01" cType="1" res="-2.2763946652412415e-01" rms="4.4182255864143372e-01" purity="2.7061459422111511e-01" nType="0">
          <Node pos="l" depth="2" NCoef="0" IVar="2" Cut="3.9554306030273438e+02" cType="1" res="-3.2326442003250122e-01" rms="3.7748885154724121e-01" purity="1.7342785000801086e-01" nType="0">
            <Node pos="l" depth="3" NCoef="0" IVar="15" Cut="3.1507844924926758e+01" cType="1" res="-3.8160142302513123e-01" rms="3.1796163320541382e-01" purity="1.1457935720682144e-01" nType="0">
              <Node pos="l" depth="4" NCoef="0" IVar="-1" Cut="0.0000000000000000e+00" cType="1" res="-1.4082689303904772e-03" rms="2.1747373044490814e-01" purity="4.9804680049419403e-02" nType="-99"/>
              <Node pos="r" depth="4" NCoef="0" IVar="13" Cut="4.9240825653076172e+01" cType="1" res="-3.1651133298873901e-01" rms="3.8357460498809814e-01" purity="1.8013429641723633e-01" nType="0">
                <Node pos="l" depth="5" NCoef="0" IVar="-1" Cut="0.0000000000000000e+00" cType="1" res="-1.5706568956375122e-03" rms="3.1968379020690918e-01" purity="1.1572192609310150e-01" nType="-99"/>
                <Node pos="r" depth="5" NCoef="0" IVar="-1" Cut="0.0000000000000000e+00" cType="1" res="-1.2318447697907686e-03" rms="4.2909955978393555e-01" purity="2.4554635584354401e-01" nType="-99"/>
              </Node>
            </Node>
            <Node pos="r" depth="3" NCoef="0" IVar="-1" Cut="0.0000000000000000e+00" cType="1" res="-9.2278083320707083e-04" rms="4.9121460318565369e-01" purity="4.1601273417472839e-01" nType="-99"/>
          </Node>
          <Node pos="r" depth="2" NCoef="0" IVar="5" Cut="9.3855386972427368e-01" cType="1" res="7.2096060030162334e-03" rms="4.9703782796859741e-01" purity="5.0929933786392212e-01" nType="0">
            <Node pos="l" depth="3" NCoef="0" IVar="8" Cut="8.3349257707595825e-01" cType="1" res="-1.0530075430870056e-01" rms="4.8641216754913330e-01" purity="3.9532703161239624e-01" nType="0">
              <Node pos="l" depth="4" NCoef="0" IVar="-1" Cut="0.0000000000000000e+00" cType="1" res="-6.3328410033136606e-04" rms="4.9650177359580994e-01" purity="4.6929669380187988e-01" nType="-99"/>
              <Node pos="r" depth="4" NCoef="0" IVar="-1" Cut="0.0000000000000000e+00" cType="1" res="-3.9553432725369930e-03" rms="4.6497711539268494e-01" purity="3.2267802953720093e-01" nType="-99"/>
            </Node>
            <Node pos="r" depth="3" NCoef="0" IVar="-1" Cut="0.0000000000000000e+00" cType="1" res="4.0360116399824619e-03" rms="4.4579488039016724e-01" purity="7.2223728895187378e-01" nType="-99"/>
          </Node>
        </Node>
        <Node pos="r" depth="1" NCoef="0" IVar="6" Cut="4.0260154008865356e-01" cType="1" res="2.9687976837158203e-01" rms="3.9079976081848145e-01" purity="8.0931109189987183e-01" nType="0">
          <Node pos="l" depth="2" NCoef="0" IVar="1" Cut="1.1904761791229248e+00" cType="1" res="2.0009543001651764e-01" rms="4.5224198698997498e-01" purity="7.0956647396087646e-01" nType="0">
            <Node pos="l" depth="3" NCoef="0" IVar="-1" Cut="0.0000000000000000e+00" cType="1" res="1.4485222054645419e-03" rms="4.8874855041503906e-01" purity="5.9852105379104614e-01" nType="-99"/>
            <Node pos="r" depth="3" NCoef="0" IVar="-1" Cut="0.0000000000000000e+00" cType="1" res="4.4384626671671867e-03" rms="3.7150180339813232e-01" purity="8.3423942327499390e-01" nType="-99"/>
          </Node>
          <Node pos="r" depth="2" NCoef="0" IVar="5" Cut="7.9176694154739380e-01" cType="1" res="3.7730187177658081e-01" rms="3.0892026424407959e-01" purity="8.9219301939010620e-01" nType="0">
            <Node pos="l" depth="3" NCoef="0" IVar="-1" Cut="0.0000000000000000e+00" cType="1" res="4.5055756345391273e-03" rms="3.8138017058372498e-01" purity="8.2213658094406128e-01" nType="-99"/>
            <Node pos="r" depth="3" NCoef="0" IVar="1" Cut="1.1904761791229248e+00" cType="1" res="4.2679756879806519e-01" rms="2.3019653558731079e-01" purity="9.4352173805236816e-01" nType="0">
              <Node pos="l" depth="4" NCoef="0" IVar="-1" Cut="0.0000000000000000e+00" cType="1" res="6.2417006120085716e-03" rms="2.8247785568237305e-01" purity="9.1216838359832764e-01" nType="-99"/>
              <Node pos="r" depth="4" NCoef="0" IVar="-1" Cut="0.0000000000000000e+00" cType="1" res="6.8002128973603249e-03" rms="1.4561694860458374e-01" purity="9.7823679447174072e-01" nType="-99"/>
            </Node>
          </Node>
        </Node>
      </Node>
    </BinaryTree>
    <BinaryTree type="DecisionTree" boostWeight="1.0000000000000000e+00" itree="7">
      <Node pos="s" depth="0" NCoef="0" IVar="18" Cut="-9.5123828125000000e+02" cType="1" res="-1.3942045159637928e-02" rms="4.9388515949249268e-01" purity="4.9129557609558105e-01" nType="0">
        <Node pos="l" depth="1" NCoef="0" IVar="2" Cut="3.0115316772460938e+02" cType="1" res="0.0000000000000000e+00" rms="0.0000000000000000e+00" purity="1.2813155353069305e-01" nType="0">
          <Node pos="l" depth="2" NCoef="0" IVar="-1" Cut="0.0000000000000000e+00" cType="1" res="-1.8747264984995127e-03" rms="2.2127911448478699e-01" purity="5.1593560725450516e-02" nType="-99"/>
          <Node pos="r" depth="2" NCoef="0" IVar="7" Cut="8.3213537931442261e-01" cType="1" res="0.0000000000000000e+00" rms="0.0000000000000000e+00" purity="2.0932827889919281e-01" nType="0">
            <Node pos="l" depth="3" NCoef="0" IVar="-1" Cut="0.0000000000000000e+00" cType="1" res="-2.2284297738224268e-03" rms="4.4626611471176147e-01" purity="2.7529117465019226e-01" nType="-99"/>
            <Node pos="r" depth="3" NCoef="0" IVar="-1" Cut="0.0000000000000000e+00" cType="1" res="-1.3289110502228141e-03" rms="3.6521264910697937e-01" purity="1.5838150680065155e-01" nType="-99"/>
          </Node>
        </Node>
        <Node pos="r" depth="1" NCoef="0" IVar="17" Cut="4.3172527313232422e+01" cType="1" res="1.4143259823322296e-01" rms="4.7270637750625610e-01" purity="6.5161961317062378e-01" nType="0">
          <Node pos="l" depth="2" NCoef="0" IVar="1" Cut="1.1904761791229248e+00" cType="1" res="1.0807614307850599e-03" rms="4.9724683165550232e-01" purity="5.0647509098052979e-01" nType="0">
            <Node pos="l" depth="3" NCoef="0" IVar="11" Cut="9.3970901489257812e+01" cType="1" res="-9.3321181833744049e-02" rms="4.8931890726089478e-01" purity="4.0997347235679626e-01" nType="0">
              <Node pos="l" depth="4" NCoef="0" IVar="-1" Cut="0.0000000000000000e+00" cType="1" res="-1.0434883879497647e-03" rms="4.3420785665512085e-01" purity="2.5528097152709961e-01" nType="-99"/>
              <Node pos="r" depth="4" NCoef="0" IVar="12" Cut="9.4266688823699951e-01" cType="1" res="4.1583109647035599e-02" rms="4.9562183022499084e-01" purity="5.4672580957412720e-01" nType="0">
                <Node pos="l" depth="5" NCoef="0" IVar="-1" Cut="0.0000000000000000e+00" cType="1" res="2.3665302433073521e-03" rms="4.8160901665687561e-01" purity="6.2649393081665039e-01" nType="-99"/>
                <Node pos="r" depth="5" NCoef="0" IVar="-1" Cut="0.0000000000000000e+00" cType="1" res="-1.2053968384861946e-03" rms="4.9519753456115723e-01" purity="4.4832307100296021e-01" nType="-99"/>
              </Node>
            </Node>
            <Node pos="r" depth="3" NCoef="0" IVar="14" Cut="9.4589269161224365e-01" cType="1" res="1.8772493302822113e-01" rms="4.5854416489601135e-01" purity="6.9727051258087158e-01" nType="0">
              <Node pos="l" depth="4" NCoef="0" IVar="-1" Cut="0.0000000000000000e+00" cType="1" res="4.0819151327013969e-03" rms="4.1049912571907043e-01" purity="7.8320932388305664e-01" nType="-99"/>
              <Node pos="r" depth="4" NCoef="0" IVar="-1" Cut="0.0000000000000000e+00" cType="1" res="8.2841701805591583e-04" rms="4.8817372322082520e-01" purity="6.0640496015548706e-01" nType="-99"/>
            </Node>
          </Node>
          <Node pos="r" depth="2" NCoef="0" IVar="6" Cut="4.6310192346572876e-01" cType="1" res="2.6436290144920349e-01" rms="4.1259843111038208e-01" purity="7.7874773740768433e-01" nType="0">
            <Node pos="l" depth="3" NCoef="0" IVar="14" Cut="1.5223065614700317e+00" cType="1" res="1.7738130688667297e-01" rms="4.6114921569824219e-01" purity="6.8893796205520630e-01" nType="0">
              <Node pos="l" depth="4" NCoef="0" IVar="1" Cut="1.2380952835083008e+00" cType="1" res="2.5141391158103943e-01" rms="4.2343831062316895e-01" purity="7.6360702514648438e-01" nType="0">
                <Node pos="l" depth="5" NCoef="0" IVar="-1" Cut="0.0000000000000000e+00" cType="1" res="2.6397919282317162e-03" rms="4.6562337875366211e-01" purity="6.7892116308212280e-01" nType="-99"/>
                <Node pos="r" depth="5" NCoef="0" IVar="-1" Cut="0.0000000000000000e+00" cType="1" res="4.5993519015610218e-03" rms="3.6545506119728088e-01" purity="8.4089136123657227e-01" nType="-99"/>
              </Node>
              <Node pos="r" depth="4" NCoef="0" IVar="-1" Cut="0.0000000000000000e+00" cType="1" res="-7.5372227001935244e-05" rms="4.9809941649436951e-01" purity="5.0130659341812134e-01" nType="-99"/>
            </Node>
            <Node pos="r" depth="3" NCoef="0" IVar="6" Cut="6.5608197450637817e-01" cType="1" res="4.0730425715446472e-01" rms="2.6011365652084351e-01" purity="9.2633670568466187e-01" nType="0">
              <Node pos="l" depth="4" NCoef="0" IVar="-1" Cut="0.0000000000000000e+00" cType="1" res="5.6756837293505669e-03" rms="3.2661429047584534e-01" purity="8.7754791975021362e-01" nType="-99"/>
              <Node pos="r" depth="4" NCoef="0" IVar="-1" Cut="0.0000000000000000e+00" cType="1" res="6.8434989079833031e-03" rms="1.4878946542739868e-01" purity="9.7730875015258789e-01" nType="-99"/>
            </Node>
          </Node>
        </Node>
      </Node>
    </BinaryTree>
    <BinaryTree type="DecisionTree" boostWeight="1.0000000000000000e+00" itree="8">
      <Node pos="s" depth="0" NCoef="0" IVar="0" Cut="4.0476188659667969e+00" cType="1" res="-2.0446339622139931e-02" rms="4.9251285195350647e-01" purity="4.8503348231315613e-01" nType="0">
        <Node pos="l" depth="1" NCoef="0" IVar="15" Cut="4.7518512725830078e+01" cType="1" res="-2.3123918473720551e-01" rms="4.3890216946601868e-01" purity="2.6643228530883789e-01" nType="0">
          <Node pos="l" depth="2" NCoef="0" IVar="6" Cut="4.3712928891181946e-01" cType="1" res="-3.4388566017150879e-01" rms="3.5750252008438110e-01" purity="1.5163826942443848e-01" nType="0">
            <Node pos="l" depth="3" NCoef="0" IVar="15" Cut="3.3577407836914062e+01" cType="1" res="-3.9261221885681152e-01" rms="3.0235636234283447e-01" purity="1.0232916474342346e-01" nType="0">
              <Node pos="l" depth="4" NCoef="0" IVar="-1" Cut="0.0000000000000000e+00" cType="1" res="-1.2093668337911367e-03" rms="2.2955292463302612e-01" purity="5.5822402238845825e-02" nType="-99"/>
              <Node pos="r" depth="4" NCoef="0" IVar="-1" Cut="0.0000000000000000e+00" cType="1" res="-1.3644366990774870e-03" rms="3.7512513995170593e-01" purity="1.7077182233333588e-01" nType="-99"/>
            </Node>
            <Node pos="r" depth="3" NCoef="0" IVar="8" Cut="8.3308529853820801e-01" cType="1" res="-1.9452929496765137e-01" rms="4.5799723267555237e-01" purity="3.0278015136718750e-01" nType="0">
              <Node pos="l" depth="4" NCoef="0" IVar="-1" Cut="0.0000000000000000e+00" cType="1" res="-7.3260214412584901e-04" rms="4.7210761904716492e-01" purity="3.3786496520042419e-01" nType="-99"/>
              <Node pos="r" depth="4" NCoef="0" IVar="-1" Cut="0.0000000000000000e+00" cType="1" res="-1.4568783808499575e-03" rms="4.4071501493453979e-01" purity="2.6745516061782837e-01" nType="-99"/>
            </Node>
          </Node>
          <Node pos="r" depth="2" NCoef="0" IVar="6" Cut="4.6987682580947876e-01" cType="1" res="3.1697217375040054e-02" rms="4.9517506361007690e-01" purity="5.3438144922256470e-01" nType="0">
            <Node pos="l" depth="3" NCoef="0" IVar="14" Cut="1.1437326669692993e+00" cType="1" res="-8.1193365156650543e-02" rms="4.9072474241256714e-01" purity="4.1881436109542847e-01" nType="0">
              <Node pos="l" depth="4" NCoef="0" IVar="-1" Cut="0.0000000000000000e+00" cType="1" res="1.8105027265846729e-04" rms="4.9750208854675293e-01" purity="5.1011300086975098e-01" nType="-99"/>
              <Node pos="r" depth="4" NCoef="0" IVar="-1" Cut="0.0000000000000000e+00" cType="1" res="-1.7657286953181028e-03" rms="4.6288821101188660e-01" purity="3.1725266575813293e-01" nType="-99"/>
            </Node>
            <Node pos="r" depth="3" NCoef="0" IVar="-1" Cut="0.0000000000000000e+00" cType="1" res="4.4646151363849640e-03" rms="4.2222172021865845e-01" purity="7.6402473449707031e-01" nType="-99"/>
          </Node>
        </Node>
        <Node pos="r" depth="1" NCoef="0" IVar="1" Cut="1.1904761791229248e+00" cType="1" res="2.7152070403099060e-01" rms="4.0613102912902832e-01" purity="7.8781580924987793e-01" nType="0">
          <Node pos="l" depth="2" NCoef="0" IVar="3" Cut="1.1322307586669922e+02" cType="1" res="1.7731322348117828e-01" rms="4.5946902036666870e-01" purity="6.9002169370651245e-01" nType="0">
            <Node pos="l" depth="3" NCoef="0" IVar="-1" Cut="0.0000000000000000e+00" cType="1" res="5.3507206030189991e-04" rms="4.9545457959175110e-01" purity="5.5517160892486572e-01" nType="-99"/>
            <Node pos="r" depth="3" NCoef="0" IVar="7" Cut="7.1300411224365234e-01" cType="1" res="3.0755144357681274e-01" rms="3.7792640924453735e-01" purity="8.2484036684036255e-01" nType="0">
              <Node pos="l" depth="4" NCoef="0" IVar="-1" Cut="0.0000000000000000e+00" cType="1" res="5.5469092912971973e-03" rms="3.3708217740058899e-01" purity="8.6733382940292358e-01" nType="-99"/>
              <Node pos="r" depth="4" NCoef="0" IVar="-1" Cut="0.0000000000000000e+00" cType="1" res="4.6560876071453094e-03" rms="4.1018012166023254e-01" purity="7.8307765722274780e-01" nType="-99"/>
            </Node>
          </Node>
          <Node pos="r" depth="2" NCoef="0" IVar="16" Cut="1.5067497491836548e+00" cType="1" res="3.6032345890998840e-01" rms="3.2429921627044678e-01" purity="8.7999939918518066e-01" nType="0">
            <Node pos="l" depth="3" NCoef="0" IVar="0" Cut="5.3333334922790527e+00" cType="1" res="3.9722266793251038e-01" rms="2.7481353282928467e-01" purity="9.1699266433715820e-01" nType="0">
              <Node pos="l" depth="4" NCoef="0" IVar="-1" Cut="0.0000000000000000e+00" cType="1" res="4.9812016077339649e-03" rms="3.3340263366699219e-01" purity="8.7083858251571655e-01" nType="-99"/>
              <Node pos="r" depth="4" NCoef="0" IVar="-1" Cut="0.0000000000000000e+00" cType="1" res="5.9128697030246258e-03" rms="2.3449443280696869e-01" purity="9.4145464897155762e-01" nType="-99"/>
            </Node>
            <Node pos="r" depth="3" NCoef="0" IVar="-1" Cut="0.0000000000000000e+00" cType="1" res="2.1575239952653646e-03" rms="4.2306569218635559e-01" purity="7.6678413152694702e-01" nType="-99"/>
          </Node>
        </Node>
      </Node>
    </BinaryTree>
    <BinaryTree type="DecisionTree" boostWeight="1.0000000000000000e+00" itree="9">
      <Node pos="s" depth="0" NCoef="0" IVar="18" Cut="-9.5123828125000000e+02" cType="1" res="-1.7391189932823181e-02" rms="4.9189838767051697e-01" purity="4.8893585801124573e-01" nType="0">
        <Node pos="l" depth="1" NCoef="0" IVar="3" Cut="1.3114299011230469e+02" cType="1" res="0.0000000000000000e+00" rms="0.0000000000000000e+00" purity="1.2717324495315552e-01" nType="0">
          <Node pos="l" depth="2" NCoef="0" IVar="15" Cut="3.5752983093261719e+01" cType="1" res="0.0000000000000000e+00" rms="0.0000000000000000e+00" purity="9.4108462333679199e-02" nType="0">
            <Node pos="l" depth="3" NCoef="0" IVar="-1" Cut="0.0000000000000000e+00" cType="1" res="-1.5188117977231741e-03" rms="2.3162299394607544e-01" purity="5.6799858808517456e-02" nType="-99"/>
            <Node pos="r" depth="3" NCoef="0" IVar="-1" Cut="0.0000000000000000e+00" cType="1" res="-2.8731296770274639e-03" rms="3.8247388601303101e-01" purity="1.7814131081104279e-01" nType="-99"/>
          </Node>
          <Node pos="r" depth="2" NCoef="0" IVar="-1" Cut="0.0000000000000000e+00" cType="1" res="-1.1760164052248001e-03" rms="4.5842936635017395e-01" purity="3.0093508958816528e-01" nType="-99"/>
        </Node>
        <Node pos="r" depth="1" NCoef="0" IVar="1" Cut="1.1904761791229248e+00" cType="1" res="1.5143913030624390e-01" rms="4.6710631251335144e-01" purity="6.6433924436569214e-01" nType="0">
          <Node pos="l" depth="2" NCoef="0" IVar="15" Cut="5.2046688079833984e+01" cType="1" res="2.5160653516650200e-02" rms="4.9437636137008667e-01" purity="5.3348380327224731e-01" nType="0">
            <Node pos="l" depth="3" NCoef="0" IVar="6" Cut="3.4781271219253540e-01" cType="1" res="-1.6025774180889130e-01" rms="4.7149661183357239e-01" purity="3.4153553843498230e-01" nType="0">
              <Node pos="l" depth="4" NCoef="0" IVar="-1" Cut="0.0000000000000000e+00" cType="1" res="-1.3370964443311095e-03" rms="3.9710059762001038e-01" purity="1.9770486652851105e-01" nType="-99"/>
              <Node pos="r" depth="4" NCoef="0" IVar="-1" Cut="0.0000000000000000e+00" cType="1" res="-4.9491744721308351e-04" rms="4.9594655632972717e-01" purity="4.6288183331489563e-01" nType="-99"/>
            </Node>
            <Node pos="r" depth="3" NCoef="0" IVar="8" Cut="1.0712372064590454e+00" cType="1" res="1.5065470337867737e-01" rms="4.6941158175468445e-01" purity="6.6339737176895142e-01" nType="0">
              <Node pos="l" depth="4" NCoef="0" IVar="6" Cut="4.4798219203948975e-01" cType="1" res="2.4169325828552246e-01" rms="4.2627999186515808e-01" purity="7.5624823570251465e-01" nType="0">
                <Node pos="l" depth="5" NCoef="0" IVar="-1" Cut="0.0000000000000000e+00" cType="1" res="2.3974168580025434e-03" rms="4.7530144453048706e-01" purity="6.5071761608123779e-01" nType="-99"/>
                <Node pos="r" depth="5" NCoef="0" IVar="-1" Cut="0.0000000000000000e+00" cType="1" res="5.9778122231364250e-03" rms="3.2392424345016479e-01" purity="8.7914758920669556e-01" nType="-99"/>
              </Node>
              <Node pos="r" depth="4" NCoef="0" IVar="-1" Cut="0.0000000000000000e+00" cType="1" res="1.8657231703400612e-04" rms="4.9708065390586853e-01" purity="5.2620065212249756e-01" nType="-99"/>
            </Node>
          </Node>
          <Node pos="r" depth="2" NCoef="0" IVar="6" Cut="3.8152500987052917e-01" cType="1" res="3.1707817316055298e-01" rms="3.6802592873573303e-01" purity="8.3598190546035767e-01" nType="0">
            <Node pos="l" depth="3" NCoef="0" IVar="-1" Cut="0.0000000000000000e+00" cType="1" res="2.8505343943834305e-03" rms="4.4517639279365540e-01" purity="7.2486245632171631e-01" nType="-99"/>
            <Node pos="r" depth="3" NCoef="0" IVar="3" Cut="1.3359399414062500e+02" cType="1" res="3.9673602581024170e-01" rms="2.7199086546897888e-01" purity="9.1846436262130737e-01" nType="0">
              <Node pos="l" depth="4" NCoef="0" IVar="-1" Cut="0.0000000000000000e+00" cType="1" res="5.3925164975225925e-03" rms="3.2984483242034912e-01" purity="8.7437880039215088e-01" nType="-99"/>
              <Node pos="r" depth="4" NCoef="0" IVar="-1" Cut="0.0000000000000000e+00" cType="1" res="6.5653189085423946e-03" rms="1.9631092250347137e-01" purity="9.5955485105514526e-01" nType="-99"/>
            </Node>
          </Node>
        </Node>
      </Node>
    </BinaryTree>
    <BinaryTree type="DecisionTree" boostWeight="1.0000000000000000e+00" itree="10">
      <Node pos="s" depth="0" NCoef="0" IVar="17" Cut="2.7121433258056641e+01" cType="1" res="-3.0265478417277336e-03" rms="4.9108961224555969e-01" purity="5.0375646352767944e-01" nType="0">
        <Node pos="l" depth="1" NCoef="0" IVar="15" Cut="4.2156433105468750e+01" cType="1" res="-3.2821673154830933e-01" rms="3.6939793825149536e-01" purity="1.6444103419780731e-01" nType="0">
          <Node pos="l" depth="2" NCoef="0" IVar="11" Cut="1.1373416137695312e+02" cType="1" res="-3.8346379995346069e-01" rms="3.1084030866622925e-01" purity="1.0893546044826508e-01" nType="0">
            <Node pos="l" depth="3" NCoef="0" IVar="13" Cut="4.5857810974121094e+01" cType="1" res="-4.0538248419761658e-01" rms="2.8126826882362366e-01" purity="8.6919546127319336e-02" nType="0">
              <Node pos="l" depth="4" NCoef="0" IVar="-1" Cut="0.0000000000000000e+00" cType="1" res="-1.1827064445242286e-03" rms="2.2905248403549194e-01" purity="5.5712755769491196e-02" nType="-99"/>
              <Node pos="r" depth="4" NCoef="0" IVar="-1" Cut="0.0000000000000000e+00" cType="1" res="-1.1425211559981108e-03" rms="3.5375282168388367e-01" purity="1.4741165935993195e-01" nType="-99"/>
            </Node>
            <Node pos="r" depth="3" NCoef="0" IVar="-1" Cut="0.0000000000000000e+00" cType="1" res="-3.0741523951292038e-03" rms="4.0194103121757507e-01" purity="2.0461519062519073e-01" nType="-99"/>
          </Node>
          <Node pos="r" depth="2" NCoef="0" IVar="-1" Cut="0.0000000000000000e+00" cType="1" res="-3.1047808006405830e-03" rms="4.7971931099891663e-01" purity="3.6737740039825439e-01" nType="-99"/>
        </Node>
        <Node pos="r" depth="1" NCoef="0" IVar="2" Cut="3.3846569824218750e+02" cType="1" res="1.8229667842388153e-01" rms="4.5413076877593994e-01" purity="6.9712954759597778e-01" nType="0">
          <Node pos="l" depth="2" NCoef="0" IVar="-1" Cut="0.0000000000000000e+00" cType="1" res="-8.0097734462469816e-04" rms="4.3741711974143982e-01" purity="2.6398476958274841e-01" nType="-99"/>
          <Node pos="r" depth="2" NCoef="0" IVar="5" Cut="8.2072502374649048e-01" cType="1" res="2.3366831243038177e-01" rms="4.2885500192642212e-01" purity="7.5027787685394287e-01" nType="0">
            <Node pos="l" depth="3" NCoef="0" IVar="1" Cut="1.1904761791229248e+00" cType="1" res="1.4711387455463409e-01" rms="4.6993985772132874e-01" purity="6.6068834066390991e-01" nType="0">
              <Node pos="l" depth="4" NCoef="0" IVar="6" Cut="4.3648770451545715e-01" cType="1" res="5.2199646830558777e-02" rms="4.9337905645370483e-01" purity="5.6076908111572266e-01" nType="0">
                <Node pos="l" depth="5" NCoef="0" IVar="-1" Cut="0.0000000000000000e+00" cType="1" res="-3.0739113572053611e-04" rms="4.9767571687698364e-01" purity="4.8585119843482971e-01" nType="-99"/>
                <Node pos="r" depth="5" NCoef="0" IVar="-1" Cut="0.0000000000000000e+00" cType="1" res="3.6434223875403404e-03" rms="4.4285854697227478e-01" purity="7.2702771425247192e-01" nType="-99"/>
              </Node>
              <Node pos="r" depth="4" NCoef="0" IVar="12" Cut="9.5126587152481079e-01" cType="1" res="2.6111987233161926e-01" rms="4.1219425201416016e-01" purity="7.8070622682571411e-01" nType="0">
                <Node pos="l" depth="5" NCoef="0" IVar="-1" Cut="0.0000000000000000e+00" cType="1" res="5.1710256375372410e-03" rms="3.2795700430870056e-01" purity="8.7621718645095825e-01" nType="-99"/>
                <Node pos="r" depth="5" NCoef="0" IVar="-1" Cut="0.0000000000000000e+00" cType="1" res="1.3716170797124505e-03" rms="4.6345725655555725e-01" purity="6.8409442901611328e-01" nType="-99"/>
              </Node>
            </Node>
            <Node pos="r" depth="3" NCoef="0" IVar="1" Cut="1.1904761791229248e+00" cType="1" res="3.4634670615196228e-01" rms="3.3674201369285583e-01" purity="8.6690741777420044e-01" nType="0">
              <Node pos="l" depth="4" NCoef="0" IVar="6" Cut="4.9074298143386841e-01" cType="1" res="2.8331661224365234e-01" rms="3.9716193079948425e-01" purity="8.0026304721832275e-01" nType="0">
                <Node pos="l" depth="5" NCoef="0" IVar="-1" Cut="0.0000000000000000e+00" cType="1" res="3.4067295491695404e-03" rms="4.5082283020019531e-01" purity="7.1218979358673096e-01" nType="-99"/>
                <Node pos="r" depth="5" NCoef="0" IVar="-1" Cut="0.0000000000000000e+00" cType="1" res="6.4287437126040459e-03" rms="2.9612809419631958e-01" purity="9.0233439207077026e-01" nType="-99"/>
              </Node>
              <Node pos="r" depth="4" NCoef="0" IVar="16" Cut="7.6099258661270142e-01" cType="1" res="4.2099881172180176e-01" rms="2.2494059801101685e-01" purity="9.4584017992019653e-01" nType="0">
                <Node pos="l" depth="5" NCoef="0" IVar="-1" Cut="0.0000000000000000e+00" cType="1" res="6.5012816339731216e-03" rms="1.5942968428134918e-01" purity="9.7368526458740234e-01" nType="-99"/>
                <Node pos="r" depth="5" NCoef="0" IVar="-1" Cut="0.0000000000000000e+00" cType="1" res="6.2255952507257462e-03" rms="2.6568695902824402e-01" purity="9.2246341705322266e-01" nType="-99"/>
              </Node>
            </Node>
          </Node>
        </Node>
      </Node>
    </BinaryTree>
    <BinaryTree type="DecisionTree" boostWeight="1.0000000000000000e+00" itree="11">
      <Node pos="s" depth="0" NCoef="0" IVar="18" Cut="-9.5123809814453125e+02" cType="1" res="9.6167922019958496e-03" rms="4.8999011516571045e-01" purity="5.1754897832870483e-01" nType="0">
        <Node pos="l" depth="1" NCoef="0" IVar="15" Cut="4.7776062011718750e+01" cType="1" res="0.0000000000000000e+00" rms="0.0000000000000000e+00" purity="1.2835940718650818e-01" nType="0">
          <Node pos="l" depth="2" NCoef="0" IVar="2" Cut="2.9937475585937500e+02" cType="1" res="0.0000000000000000e+00" rms="0.0000000000000000e+00" purity="8.7430134415626526e-02" nType="0">
            <Node pos="l" depth="3" NCoef="0" IVar="-1" Cut="0.0000000000000000e+00" cType="1" res="-1.6947056865319610e-03" rms="1.9358755648136139e-01" purity="3.8916122168302536e-02" nType="-99"/>
            <Node pos="r" depth="3" NCoef="0" IVar="-1" Cut="0.0000000000000000e+00" cType="1" res="-1.1955883819609880e-03" rms="3.6052075028419495e-01" purity="1.5323929488658905e-01" nType="-99"/>
          </Node>
          <Node pos="r" depth="2" NCoef="0" IVar="-1" Cut="0.0000000000000000e+00" cType="1" res="-3.9313980378210545e-03" rms="4.7140213847160339e-01" purity="3.3709713816642761e-01" nType="-99"/>
        </Node>
        <Node pos="r" depth="1" NCoef="0" IVar="0" Cut="4.4285712242126465e+00" cType="1" res="1.8882074952125549e-01" rms="4.5062980055809021e-01" purity="7.0502650737762451e-01" nType="0">
          <Node pos="l" depth="2" NCoef="0" IVar="5" Cut="6.7463380098342896e-01" cType="1" res="0.0000000000000000e+00" rms="0.0000000000000000e+00" purity="5.3281092643737793e-01" nType="0">
            <Node pos="l" depth="3" NCoef="0" IVar="-1" Cut="0.0000000000000000e+00" cType="1" res="-1.4177936827763915e-03" rms="4.8450192809104919e-01" purity="3.8617914915084839e-01" nType="-99"/>
            <Node pos="r" depth="3" NCoef="0" IVar="7" Cut="7.1412861347198486e-01" cType="1" res="0.0000000000000000e+00" rms="0.0000000000000000e+00" purity="6.4613741636276245e-01" nType="0">
              <Node pos="l" depth="4" NCoef="0" IVar="-1" Cut="0.0000000000000000e+00" cType="1" res="4.3101347982883453e-03" rms="4.3887954950332642e-01" purity="7.3349332809448242e-01" nType="-99"/>
              <Node pos="r" depth="4" NCoef="0" IVar="-1" Cut="0.0000000000000000e+00" cType="1" res="1.1999176349490881e-03" rms="4.9207365512847900e-01" purity="5.6775265932083130e-01" nType="-99"/>
            </Node>
          </Node>
          <Node pos="r" depth="2" NCoef="0" IVar="14" Cut="2.4726550579071045e+00" cType="1" res="2.6888054609298706e-01" rms="4.0346154570579529e-01" purity="7.9018902778625488e-01" nType="0">
            <Node pos="l" depth="3" NCoef="0" IVar="6" Cut="3.8478013873100281e-01" cType="1" res="3.0541285872459412e-01" rms="3.7465086579322815e-01" purity="8.2751721143722534e-01" nType="0">
              <Node pos="l" depth="4" NCoef="0" IVar="1" Cut="1.1428571939468384e+00" cType="1" res="2.2598846256732941e-01" rms="4.3515205383300781e-01" purity="7.4233371019363403e-01" nType="0">
                <Node pos="l" depth="5" NCoef="0" IVar="-1" Cut="0.0000000000000000e+00" cType="1" res="2.3283488117158413e-03" rms="4.7523641586303711e-01" purity="6.5193432569503784e-01" nType="-99"/>
                <Node pos="r" depth="5" NCoef="0" IVar="-1" Cut="0.0000000000000000e+00" cType="1" res="4.4369692914187908e-03" rms="3.7208336591720581e-01" purity="8.3323603868484497e-01" nType="-99"/>
              </Node>
              <Node pos="r" depth="4" NCoef="0" IVar="0" Cut="5.3809523582458496e+00" cType="1" res="3.6203131079673767e-01" rms="3.1262573599815369e-01" purity="8.8824105262756348e-01" nType="0">
                <Node pos="l" depth="5" NCoef="0" IVar="-1" Cut="0.0000000000000000e+00" cType="1" res="4.8377648927271366e-03" rms="3.8737154006958008e-01" purity="8.1263172626495361e-01" nType="-99"/>
                <Node pos="r" depth="5" NCoef="0" IVar="0" Cut="6.3333334922790527e+00" cType="1" res="4.0963795781135559e-01" rms="2.4035225808620453e-01" purity="9.3771427869796753e-01" nType="0">
                  <Node pos="l" depth="6" NCoef="0" IVar="-1" Cut="0.0000000000000000e+00" cType="1" res="5.7910694740712643e-03" rms="2.9175546765327454e-01" purity="9.0511447191238403e-01" nType="-99"/>
                  <Node pos="r" depth="6" NCoef="0" IVar="-1" Cut="0.0000000000000000e+00" cType="1" res="6.0131689533591270e-03" rms="1.8722519278526306e-01" purity="9.6317410469055176e-01" nType="-99"/>
                </Node>
              </Node>
            </Node>
            <Node pos="r" depth="3" NCoef="0" IVar="-1" Cut="0.0000000000000000e+00" cType="1" res="1.2112849799450487e-04" rms="4.9445405602455139e-01" purity="5.3572458028793335e-01" nType="-99"/>
          </Node>
        </Node>
      </Node>
    </BinaryTree>
    <BinaryTree type="DecisionTree" boostWeight="1.0000000000000000e+00" itree="12">
      <Node pos="s" depth="0" NCoef="0" IVar="0" Cut="4.4285712242126465e+00" cType="1" res="1.5048685017973185e-03" rms="4.8937112092971802e-01" purity="5.1001667976379395e-01" nType="0">
        <Node pos="l" depth="1" NCoef="0" IVar="1" Cut="1.0476191043853760e+00" cType="1" res="-2.1500483155250549e-01" rms="4.4481098651885986e-01" purity="2.8143587708473206e-01" nType="0">
          <Node pos="l" depth="2" NCoef="0" IVar="5" Cut="9.8285841941833496e-01" cType="1" res="-2.7766117453575134e-01" rms="4.0896889567375183e-01" purity="2.1668852865695953e-01" nType="0">
            <Node pos="l" depth="3" NCoef="0" IVar="15" Cut="4.7518146514892578e+01" cType="1" res="-3.2665389776229858e-01" rms="3.7060800194740295e-01" purity="1.6646757721900940e-01" nType="0">
              <Node pos="l" depth="4" NCoef="0" IVar="13" Cut="5.5222671508789062e+01" cType="1" res="-3.7807035446166992e-01" rms="3.1648570299148560e-01" purity="1.1367730796337128e-01" nType="0">
                <Node pos="l" depth="5" NCoef="0" IVar="8" Cut="8.3346372842788696e-01" cType="1" res="-4.1473978757858276e-01" rms="2.6651385426521301e-01" purity="7.7192433178424835e-02" nType="0">
                  <Node pos="l" depth="6" NCoef="0" IVar="-1" Cut="0.0000000000000000e+00" cType="1" res="-1.7185354372486472e-03" rms="3.3531627058982849e-01" purity="1.2936760485172272e-01" nType="-99"/>
                  <Node pos="r" depth="6" NCoef="0" IVar="-1" Cut="0.0000000000000000e+00" cType="1" res="-1.3786365743726492e-03" rms="1.8925769627094269e-01" purity="3.7359256297349930e-02" nType="-99"/>
                </Node>
                <Node pos="r" depth="5" NCoef="0" IVar="-1" Cut="0.0000000000000000e+00" cType="1" res="-2.1964423358440399e-03" rms="3.9758285880088806e-01" purity="1.9946914911270142e-01" nType="-99"/>
              </Node>
              <Node pos="r" depth="4" NCoef="0" IVar="-1" Cut="0.0000000000000000e+00" cType="1" res="-1.6678826650604606e-03" rms="4.6657368540763855e-01" purity="3.2626599073410034e-01" nType="-99"/>
            </Node>
            <Node pos="r" depth="3" NCoef="0" IVar="-1" Cut="0.0000000000000000e+00" cType="1" res="-1.1229448318772484e-05" rms="4.9601507186889648e-01" purity="4.9985945224761963e-01" nType="-99"/>
          </Node>
          <Node pos="r" depth="2" NCoef="0" IVar="-1" Cut="0.0000000000000000e+00" cType="1" res="4.1266991756856441e-03" rms="4.2657294869422913e-01" purity="7.5706630945205688e-01" nType="-99"/>
        </Node>
        <Node pos="r" depth="1" NCoef="0" IVar="6" Cut="3.7504503130912781e-01" cType="1" res="2.6921290159225464e-01" rms="4.0165412425994873e-01" purity="7.9265022277832031e-01" nType="0">
          <Node pos="l" depth="2" NCoef="0" IVar="12" Cut="9.4697278738021851e-01" cType="1" res="1.4714165031909943e-01" rms="4.6942389011383057e-01" purity="6.6442072391510010e-01" nType="0">
            <Node pos="l" depth="3" NCoef="0" IVar="-1" Cut="0.0000000000000000e+00" cType="1" res="4.3408917263150215e-03" rms="3.8757374882698059e-01" purity="8.1323236227035522e-01" nType="-99"/>
            <Node pos="r" depth="3" NCoef="0" IVar="-1" Cut="0.0000000000000000e+00" cType="1" res="1.0329258657293394e-05" rms="4.9731338024139404e-01" purity="5.1672053337097168e-01" nType="-99"/>
          </Node>
          <Node pos="r" depth="2" NCoef="0" IVar="8" Cut="9.5175397396087646e-01" cType="1" res="3.5387974977493286e-01" rms="3.2074588537216187e-01" purity="8.8158833980560303e-01" nType="0">
            <Node pos="l" depth="3" NCoef="0" IVar="7" Cut="7.1253919601440430e-01" cType="1" res="3.9262291789054871e-01" rms="2.6599720120429993e-01" purity="9.2237132787704468e-01" nType="0">
              <Node pos="l" depth="4" NCoef="0" IVar="12" Cut="7.5895786285400391e-01" cType="1" res="4.2077010869979858e-01" rms="2.1459910273551941e-01" purity="9.5137381553649902e-01" nType="0">
                <Node pos="l" depth="5" NCoef="0" IVar="-1" Cut="0.0000000000000000e+00" cType="1" res="6.2816315330564976e-03" rms="1.7749692499637604e-01" purity="9.6728658676147461e-01" nType="-99"/>
                <Node pos="r" depth="5" NCoef="0" IVar="-1" Cut="0.0000000000000000e+00" cType="1" res="6.0265078209340572e-03" rms="2.4650350213050842e-01" purity="9.3471485376358032e-01" nType="-99"/>
              </Node>
              <Node pos="r" depth="4" NCoef="0" IVar="-1" Cut="0.0000000000000000e+00" cType="1" res="5.3767333738505840e-03" rms="3.3622619509696960e-01" purity="8.6764705181121826e-01" nType="-99"/>
            </Node>
            <Node pos="r" depth="3" NCoef="0" IVar="-1" Cut="0.0000000000000000e+00" cType="1" res="4.4701560400426388e-03" rms="3.8840639591217041e-01" purity="8.1183904409408569e-01" nType="-99"/>
          </Node>
        </Node>
      </Node>
    </BinaryTree>
    <BinaryTree type="DecisionTree" boostWeight="1.0000000000000000e+00" itree="13">
      <Node pos="s" depth="0" NCoef="0" IVar="0" Cut="4.2857141494750977e+00" cType="1" res="-2.1081217564642429e-03" rms="4.8877727985382080e-01" purity="5.0719910860061646e-01" nType="0">
        <Node pos="l" depth="1" NCoef="0" IVar="2" Cut="3.1116189575195312e+02" cType="1" res="-2.0757423341274261e-01" rms="4.4800475239753723e-01" purity="2.8862902522087097e-01" nType="0">
          <Node pos="l" depth="2" NCoef="0" IVar="2" Cut="2.6135220336914062e+02" cType="1" res="-3.9125970005989075e-01" rms="2.9849869012832642e-01" purity="9.9446095526218414e-02" nType="0">
            <Node pos="l" depth="3" NCoef="0" IVar="-1" Cut="0.0000000000000000e+00" cType="1" res="-1.3208087766543031e-03" rms="2.0078262686729431e-01" purity="4.2086903005838394e-02" nType="-99"/>
            <Node pos="r" depth="3" NCoef="0" IVar="-1" Cut="0.0000000000000000e+00" cType="1" res="-2.4021766148507595e-03" rms="4.0541449189186096e-01" purity="2.0950588583946228e-01" nType="-99"/>
          </Node>
          <Node pos="r" depth="2" NCoef="0" IVar="1" Cut="1.0476191043853760e+00" cType="1" res="-7.8459382057189941e-02" rms="4.8864191770553589e-01" purity="4.2160817980766296e-01" nType="0">
            <Node pos="l" depth="3" NCoef="0" IVar="6" Cut="4.5860573649406433e-01" cType="1" res="-1.5385951101779938e-01" rms="4.7141268849372864e-01" purity="3.4245583415031433e-01" nType="0">
              <Node pos="l" depth="4" NCoef="0" IVar="2" Cut="3.9641958618164062e+02" cType="1" res="-2.3990422487258911e-01" rms="4.3358674645423889e-01" purity="2.5400799512863159e-01" nType="0">
                <Node pos="l" depth="5" NCoef="0" IVar="-1" Cut="0.0000000000000000e+00" cType="1" res="-1.4911390608176589e-03" rms="3.8163310289382935e-01" purity="1.7755047976970673e-01" nType="-99"/>
                <Node pos="r" depth="5" NCoef="0" IVar="-1" Cut="0.0000000000000000e+00" cType="1" res="-2.1849907934665680e-03" rms="4.6766945719718933e-01" purity="3.2881987094879150e-01" nType="-99"/>
              </Node>
              <Node pos="r" depth="4" NCoef="0" IVar="-1" Cut="0.0000000000000000e+00" cType="1" res="5.3045444656163454e-04" rms="4.9466782808303833e-01" purity="5.4678547382354736e-01" nType="-99"/>
            </Node>
            <Node pos="r" depth="3" NCoef="0" IVar="-1" Cut="0.0000000000000000e+00" cType="1" res="3.8378268945962191e-03" rms="4.3665045499801636e-01" purity="7.3951160907745361e-01" nType="-99"/>
          </Node>
        </Node>
        <Node pos="r" depth="1" NCoef="0" IVar="1" Cut="1.1904761791229248e+00" cType="1" res="2.5247558951377869e-01" rms="4.1122707724571228e-01" purity="7.7801936864852905e-01" nType="0">
          <Node pos="l" depth="2" NCoef="0" IVar="6" Cut="3.5660886764526367e-01" cType="1" res="1.5495550632476807e-01" rms="4.6462389826774597e-01" purity="6.7458271980285645e-01" nType="0">
            <Node pos="l" depth="3" NCoef="0" IVar="-1" Cut="0.0000000000000000e+00" cType="1" res="3.5297045542392880e-05" rms="4.9734276533126831e-01" purity="5.1677221059799194e-01" nType="-99"/>
            <Node pos="r" depth="3" NCoef="0" IVar="0" Cut="5.2857141494750977e+00" cType="1" res="2.4088528752326965e-01" rms="4.2139923572540283e-01" purity="7.6488167047500610e-01" nType="0">
              <Node pos="l" depth="4" NCoef="0" IVar="-1" Cut="0.0000000000000000e+00" cType="1" res="1.4699262101203203e-03" rms="4.7089311480522156e-01" purity="6.6254889965057373e-01" nType="-99"/>
              <Node pos="r" depth="4" NCoef="0" IVar="-1" Cut="0.0000000000000000e+00" cType="1" res="5.3124814294278622e-03" rms="3.3620062470436096e-01" purity="8.6795425415039062e-01" nType="-99"/>
            </Node>
          </Node>
          <Node pos="r" depth="2" NCoef="0" IVar="0" Cut="5.3333334922790527e+00" cType="1" res="3.4869450330734253e-01" rms="3.2299023866653442e-01" purity="8.8007599115371704e-01" nType="0">
            <Node pos="l" depth="3" NCoef="0" IVar="-1" Cut="0.0000000000000000e+00" cType="1" res="2.5880921166390181e-03" rms="4.0078383684158325e-01" purity="7.9547357559204102e-01" nType="-99"/>
            <Node pos="r" depth="3" NCoef="0" IVar="6" Cut="4.6224993467330933e-01" cType="1" res="3.9469286799430847e-01" rms="2.5915467739105225e-01" purity="9.2700314521789551e-01" nType="0">
              <Node pos="l" depth="4" NCoef="0" IVar="-1" Cut="0.0000000000000000e+00" cType="1" res="5.1451623439788818e-03" rms="3.1650805473327637e-01" purity="8.8701748847961426e-01" nType="-99"/>
              <Node pos="r" depth="4" NCoef="0" IVar="-1" Cut="0.0000000000000000e+00" cType="1" res="6.3602142035961151e-03" rms="1.1578527837991714e-01" purity="9.8626071214675903e-01" nType="-99"/>
            </Node>
          </Node>
        </Node>
      </Node>
    </BinaryTree>
    <BinaryTree type="DecisionTree" boostWeight="1.0000000000000000e+00" itree="14">
      <Node pos="s" depth="0" NCoef="0" IVar="0" Cut="4.0476188659667969e+00" cType="1" res="-4.0155299007892609e-02" rms="4.8614072799682617e-01" purity="4.6785381436347961e-01" nType="0">
        <Node pos="l" depth="1" NCoef="0" IVar="17" Cut="-9.3308953857421875e+02" cType="1" res="-2.5598838925361633e-01" rms="4.2115983366966248e-01" purity="2.3870283365249634e-01" nType="0">
          <Node pos="l" depth="2" NCoef="0" IVar="6" Cut="4.4841879606246948e-01" cType="1" res="0.0000000000000000e+00" rms="0.0000000000000000e+00" purity="1.1590695381164551e-01" nType="0">
            <Node pos="l" depth="3" NCoef="0" IVar="11" Cut="9.8491592407226562e+01" cType="1" res="0.0000000000000000e+00" rms="0.0000000000000000e+00" purity="7.1898080408573151e-02" nType="0">
              <Node pos="l" depth="4" NCoef="0" IVar="-1" Cut="0.0000000000000000e+00" cType="1" res="-1.1517734965309501e-03" rms="1.9321832060813904e-01" purity="3.8764130324125290e-02" nType="-99"/>
              <Node pos="r" depth="4" NCoef="0" IVar="-1" Cut="0.0000000000000000e+00" cType="1" res="-1.5413507353514433e-03" rms="3.5381034016609192e-01" purity="1.4639604091644287e-01" nType="-99"/>
            </Node>
            <Node pos="r" depth="3" NCoef="0" IVar="-1" Cut="0.0000000000000000e+00" cType="1" res="-1.1041474062949419e-03" rms="4.5940083265304565e-01" purity="3.0435302853584290e-01" nType="-99"/>
          </Node>
          <Node pos="r" depth="2" NCoef="0" IVar="15" Cut="5.2871784210205078e+01" cType="1" res="0.0000000000000000e+00" rms="0.0000000000000000e+00" purity="4.3099826574325562e-01" nType="0">
            <Node pos="l" depth="3" NCoef="0" IVar="17" Cut="3.0069755554199219e+01" cType="1" res="0.0000000000000000e+00" rms="0.0000000000000000e+00" purity="3.0673617124557495e-01" nType="0">
              <Node pos="l" depth="4" NCoef="0" IVar="-1" Cut="0.0000000000000000e+00" cType="1" res="-1.0596781503409147e-03" rms="4.2014324665069580e-01" purity="2.3173068463802338e-01" nType="-99"/>
              <Node pos="r" depth="4" NCoef="0" IVar="-1" Cut="0.0000000000000000e+00" cType="1" res="-4.6367940376512706e-04" rms="4.8969244956970215e-01" purity="4.1538935899734497e-01" nType="-99"/>
            </Node>
            <Node pos="r" depth="3" NCoef="0" IVar="-1" Cut="0.0000000000000000e+00" cType="1" res="2.0549776963889599e-03" rms="4.7992208600044250e-01" purity="6.2490010261535645e-01" nType="-99"/>
          </Node>
        </Node>
        <Node pos="r" depth="1" NCoef="0" IVar="5" Cut="8.4318017959594727e-01" cType="1" res="2.7006146311759949e-01" rms="3.9734432101249695e-01" purity="7.9721224308013916e-01" nType="0">
          <Node pos="l" depth="2" NCoef="0" IVar="1" Cut="1.2380952835083008e+00" cType="1" res="1.8754319846630096e-01" rms="4.4927537441253662e-01" purity="7.1066671609878540e-01" nType="0">
            <Node pos="l" depth="3" NCoef="0" IVar="8" Cut="8.3327180147171021e-01" cType="1" res="8.9478448033332825e-02" rms="4.8542460799217224e-01" purity="6.0555464029312134e-01" nType="0">
              <Node pos="l" depth="4" NCoef="0" IVar="-1" Cut="0.0000000000000000e+00" cType="1" res="1.8730777082964778e-03" rms="4.7236660122871399e-01" purity="6.5465593338012695e-01" nType="-99"/>
              <Node pos="r" depth="4" NCoef="0" IVar="-1" Cut="0.0000000000000000e+00" cType="1" res="6.3605484319850802e-04" rms="4.9358004331588745e-01" purity="5.5499154329299927e-01" nType="-99"/>
            </Node>
            <Node pos="r" depth="3" NCoef="0" IVar="-1" Cut="0.0000000000000000e+00" cType="1" res="4.1247718036174774e-03" rms="3.7878406047821045e-01" purity="8.2463997602462769e-01" nType="-99"/>
          </Node>
          <Node pos="r" depth="2" NCoef="0" IVar="7" Cut="1.0713764429092407e+00" cType="1" res="3.7668392062187195e-01" rms="2.8444197773933411e-01" purity="9.0903848409652710e-01" nType="0">
            <Node pos="l" depth="3" NCoef="0" IVar="17" Cut="6.7244911193847656e+01" cType="1" res="4.0708777308464050e-01" rms="2.3203518986701965e-01" purity="9.4147408008575439e-01" nType="0">
              <Node pos="l" depth="4" NCoef="0" IVar="-1" Cut="0.0000000000000000e+00" cType="1" res="6.0696620494127274e-03" rms="2.7294275164604187e-01" purity="9.1668558120727539e-01" nType="-99"/>
              <Node pos="r" depth="4" NCoef="0" IVar="-1" Cut="0.0000000000000000e+00" cType="1" res="6.3088373281061649e-03" rms="1.5593142807483673e-01" purity="9.7480297088623047e-01" nType="-99"/>
            </Node>
            <Node pos="r" depth="3" NCoef="0" IVar="-1" Cut="0.0000000000000000e+00" cType="1" res="4.2828051373362541e-03" rms="3.6821538209915161e-01" purity="8.3526897430419922e-01" nType="-99"/>
          </Node>
        </Node>
      </Node>
    </BinaryTree>
    <BinaryTree type="DecisionTree" boostWeight="1.0000000000000000e+00" itree="15">
      <Node pos="s" depth="0" NCoef="0" IVar="0" Cut="3.4761905670166016e+00" cType="1" res="1.3008000096306205e-03" rms="4.8668926954269409e-01" purity="5.1177304983139038e-01" nType="0">
        <Node pos="l" depth="1" NCoef="0" IVar="2" Cut="3.1666189575195312e+02" cType="1" res="0.0000000000000000e+00" rms="0.0000000000000000e+00" purity="1.2400178611278534e-01" nType="0">
          <Node pos="l" depth="2" NCoef="0" IVar="-1" Cut="0.0000000000000000e+00" cType="1" res="-1.5581803163513541e-03" rms="2.3237162828445435e-01" purity="5.7149630039930344e-02" nType="-99"/>
          <Node pos="r" depth="2" NCoef="0" IVar="8" Cut="9.5164424180984497e-01" cType="1" res="0.0000000000000000e+00" rms="0.0000000000000000e+00" purity="2.1404750645160675e-01" nType="0">
            <Node pos="l" depth="3" NCoef="0" IVar="-1" Cut="0.0000000000000000e+00" cType="1" res="-1.1958963004872203e-03" rms="4.5088583230972290e-01" purity="2.8514683246612549e-01" nType="-99"/>
            <Node pos="r" depth="3" NCoef="0" IVar="-1" Cut="0.0000000000000000e+00" cType="1" res="-1.5503419563174248e-03" rms="3.4242880344390869e-01" purity="1.3571839034557343e-01" nType="-99"/>
          </Node>
        </Node>
        <Node pos="r" depth="1" NCoef="0" IVar="0" Cut="4.4285712242126465e+00" cType="1" res="1.6779708862304688e-01" rms="4.5483157038688660e-01" purity="6.8863761425018311e-01" nType="0">
          <Node pos="l" depth="2" NCoef="0" IVar="2" Cut="3.9567364501953125e+02" cType="1" res="0.0000000000000000e+00" rms="0.0000000000000000e+00" purity="4.7857230901718140e-01" nType="0">
            <Node pos="l" depth="3" NCoef="0" IVar="17" Cut="2.9776741027832031e+01" cType="1" res="0.0000000000000000e+00" rms="0.0000000000000000e+00" purity="3.4482786059379578e-01" nType="0">
              <Node pos="l" depth="4" NCoef="0" IVar="-1" Cut="0.0000000000000000e+00" cType="1" res="-1.0884543880820274e-03" rms="4.1566589474678040e-01" purity="2.2386887669563293e-01" nType="-99"/>
              <Node pos="r" depth="4" NCoef="0" IVar="-1" Cut="0.0000000000000000e+00" cType="1" res="-1.4706763613503426e-04" rms="4.9641469120979309e-01" purity="4.8555594682693481e-01" nType="-99"/>
            </Node>
            <Node pos="r" depth="3" NCoef="0" IVar="7" Cut="8.3291387557983398e-01" cType="1" res="0.0000000000000000e+00" rms="0.0000000000000000e+00" purity="6.0823988914489746e-01" nType="0">
              <Node pos="l" depth="4" NCoef="0" IVar="-1" Cut="0.0000000000000000e+00" cType="1" res="3.6339461803436279e-03" rms="4.5684093236923218e-01" purity="6.9476473331451416e-01" nType="-99"/>
              <Node pos="r" depth="4" NCoef="0" IVar="-1" Cut="0.0000000000000000e+00" cType="1" res="1.6561943630222231e-04" rms="4.9554866552352905e-01" purity="5.1750069856643677e-01" nType="-99"/>
            </Node>
          </Node>
          <Node pos="r" depth="2" NCoef="0" IVar="14" Cut="2.4737324714660645e+00" cType="1" res="2.6010996103286743e-01" rms="4.0307831764221191e-01" purity="7.8885287046432495e-01" nType="0">
            <Node pos="l" depth="3" NCoef="0" IVar="1" Cut="1.1904761791229248e+00" cType="1" res="3.0919855833053589e-01" rms="3.6336067318916321e-01" purity="8.3942049741744995e-01" nType="0">
              <Node pos="l" depth="4" NCoef="0" IVar="5" Cut="7.3973196744918823e-01" cType="1" res="2.3896740376949310e-01" rms="4.2162656784057617e-01" purity="7.6258575916290283e-01" nType="0">
                <Node pos="l" depth="5" NCoef="0" IVar="-1" Cut="0.0000000000000000e+00" cType="1" res="2.2288192994892597e-03" rms="4.7179946303367615e-01" purity="6.5819513797760010e-01" nType="-99"/>
                <Node pos="r" depth="5" NCoef="0" IVar="6" Cut="4.6316009759902954e-01" cType="1" res="3.1975364685058594e-01" rms="3.5540542006492615e-01" purity="8.4881901741027832e-01" nType="0">
                  <Node pos="l" depth="6" NCoef="0" IVar="-1" Cut="0.0000000000000000e+00" cType="1" res="4.4311587698757648e-03" rms="4.1056913137435913e-01" purity="7.8341770172119141e-01" nType="-99"/>
                  <Node pos="r" depth="6" NCoef="0" IVar="-1" Cut="0.0000000000000000e+00" cType="1" res="6.1617903411388397e-03" rms="2.7438288927078247e-01" purity="9.1701340675354004e-01" nType="-99"/>
                </Node>
              </Node>
              <Node pos="r" depth="4" NCoef="0" IVar="6" Cut="3.8630986213684082e-01" cType="1" res="3.6916372179985046e-01" rms="2.9184153676033020e-01" purity="9.0502381324768066e-01" nType="0">
                <Node pos="l" depth="5" NCoef="0" IVar="-1" Cut="0.0000000000000000e+00" cType="1" res="4.2849159799516201e-03" rms="3.6039024591445923e-01" purity="8.4595847129821777e-01" nType="-99"/>
                <Node pos="r" depth="5" NCoef="0" IVar="6" Cut="5.1612812280654907e-01" cType="1" res="4.1174182295799255e-01" rms="2.1380724012851715e-01" purity="9.5172727108001709e-01" nType="0">
                  <Node pos="l" depth="6" NCoef="0" IVar="-1" Cut="0.0000000000000000e+00" cType="1" res="5.5733756162226200e-03" rms="2.5861006975173950e-01" purity="9.2778742313385010e-01" nType="-99"/>
                  <Node pos="r" depth="6" NCoef="0" IVar="-1" Cut="0.0000000000000000e+00" cType="1" res="6.4414278604090214e-03" rms="1.4029571413993835e-01" purity="9.7982358932495117e-01" nType="-99"/>
                </Node>
              </Node>
            </Node>
            <Node pos="r" depth="3" NCoef="0" IVar="-1" Cut="0.0000000000000000e+00" cType="1" res="-4.3890642700716853e-04" rms="4.9149152636528015e-01" purity="4.4395670294761658e-01" nType="-99"/>
          </Node>
        </Node>
      </Node>
    </BinaryTree>
    <BinaryTree type="DecisionTree" boostWeight="1.0000000000000000e+00" itree="16">
      <Node pos="s" depth="0" NCoef="0" IVar="0" Cut="4.0476188659667969e+00" cType="1" res="-2.3602847009897232e-02" rms="4.8569953441619873e-01" purity="4.8658025264739990e-01" nType="0">
        <Node pos="l" depth="1" NCoef="0" IVar="1" Cut="1.0476191043853760e+00" cType="1" res="-2.3282435536384583e-01" rms="4.3391960859298706e-01" purity="2.6203605532646179e-01" nType="0">
          <Node pos="l" depth="2" NCoef="0" IVar="15" Cut="4.9073493957519531e+01" cType="1" res="-2.8501525521278381e-01" rms="4.0199574828147888e-01" purity="2.0725783705711365e-01" nType="0">
            <Node pos="l" depth="3" NCoef="0" IVar="15" Cut="3.1877731323242188e+01" cType="1" res="-3.5322806239128113e-01" rms="3.4211480617523193e-01" purity="1.3670577108860016e-01" nType="0">
              <Node pos="l" depth="4" NCoef="0" IVar="-1" Cut="0.0000000000000000e+00" cType="1" res="-1.1871855240315199e-03" rms="2.5741380453109741e-01" purity="7.1428380906581879e-02" nType="-99"/>
              <Node pos="r" depth="4" NCoef="0" IVar="0" Cut="3.0476191043853760e+00" cType="1" res="-2.7815100550651550e-01" rms="4.0699309110641479e-01" purity="2.1265430748462677e-01" nType="0">
                <Node pos="l" depth="5" NCoef="0" IVar="-1" Cut="0.0000000000000000e+00" cType="1" res="-1.9677970558404922e-03" rms="3.4799376130104065e-01" purity="1.4117865264415741e-01" nType="-99"/>
                <Node pos="r" depth="5" NCoef="0" IVar="-1" Cut="0.0000000000000000e+00" cType="1" res="-1.3551604934036732e-03" rms="4.6218600869178772e-01" purity="3.1415170431137085e-01" nType="-99"/>
              </Node>
            </Node>
            <Node pos="r" depth="3" NCoef="0" IVar="7" Cut="1.0708677768707275e+00" cType="1" res="-8.4229342639446259e-02" rms="4.8861744999885559e-01" purity="4.1492941975593567e-01" nType="0">
              <Node pos="l" depth="4" NCoef="0" IVar="-1" Cut="0.0000000000000000e+00" cType="1" res="-1.9680583136505447e-06" rms="4.9469557404518127e-01" purity="5.0114530324935913e-01" nType="-99"/>
              <Node pos="r" depth="4" NCoef="0" IVar="-1" Cut="0.0000000000000000e+00" cType="1" res="-1.2688578572124243e-03" rms="4.6066206693649292e-01" purity="3.0944523215293884e-01" nType="-99"/>
            </Node>
          </Node>
          <Node pos="r" depth="2" NCoef="0" IVar="-1" Cut="0.0000000000000000e+00" cType="1" res="3.8218670524656773e-03" rms="4.4002178311347961e-01" purity="7.3139727115631104e-01" nType="-99"/>
        </Node>
        <Node pos="r" depth="1" NCoef="0" IVar="1" Cut="1.2380952835083008e+00" cType="1" res="2.6164835691452026e-01" rms="3.9972102642059326e-01" purity="7.9272228479385376e-01" nType="0">
          <Node pos="l" depth="2" NCoef="0" IVar="6" Cut="3.5737103223800659e-01" cType="1" res="1.5677624940872192e-01" rms="4.6123299002647400e-01" purity="6.8020522594451904e-01" nType="0">
            <Node pos="l" depth="3" NCoef="0" IVar="-1" Cut="0.0000000000000000e+00" cType="1" res="8.8425156718585640e-05" rms="4.9623355269432068e-01" purity="5.1948010921478271e-01" nType="-99"/>
            <Node pos="r" depth="3" NCoef="0" IVar="0" Cut="5.3809523582458496e+00" cType="1" res="2.4469594657421112e-01" rms="4.1500058770179749e-01" purity="7.7367204427719116e-01" nType="0">
              <Node pos="l" depth="4" NCoef="0" IVar="-1" Cut="0.0000000000000000e+00" cType="1" res="2.8248950839042664e-03" rms="4.6749147772789001e-01" purity="6.7003244161605835e-01" nType="-99"/>
              <Node pos="r" depth="4" NCoef="0" IVar="-1" Cut="0.0000000000000000e+00" cType="1" res="5.2363900467753410e-03" rms="3.3599707484245300e-01" purity="8.6793017387390137e-01" nType="-99"/>
            </Node>
          </Node>
          <Node pos="r" depth="2" NCoef="0" IVar="6" Cut="3.5395342111587524e-01" cType="1" res="3.6143758893013000e-01" rms="2.9826450347900391e-01" purity="8.9978599548339844e-01" nType="0">
            <Node pos="l" depth="3" NCoef="0" IVar="-1" Cut="0.0000000000000000e+00" cType="1" res="3.8979607634246349e-03" rms="3.8412690162658691e-01" purity="8.1878578662872314e-01" nType="-99"/>
            <Node pos="r" depth="3" NCoef="0" IVar="3" Cut="1.6839587402343750e+02" cType="1" res="3.9839631319046021e-01" rms="2.3660655319690704e-01" purity="9.3965274095535278e-01" nType="0">
              <Node pos="l" depth="4" NCoef="0" IVar="-1" Cut="0.0000000000000000e+00" cType="1" res="5.1419646479189396e-03" rms="2.8681287169456482e-01" purity="9.0859252214431763e-01" nType="-99"/>
              <Node pos="r" depth="4" NCoef="0" IVar="-1" Cut="0.0000000000000000e+00" cType="1" res="6.4407335594296455e-03" rms="1.2218104302883148e-01" purity="9.8483544588088989e-01" nType="-99"/>
            </Node>
          </Node>
        </Node>
      </Node>
    </BinaryTree>
    <BinaryTree type="DecisionTree" boostWeight="1.0000000000000000e+00" itree="17">
      <Node pos="s" depth="0" NCoef="0" IVar="0" Cut="4.0476188659667969e+00" cType="1" res="-3.8949032314121723e-03" rms="4.8484718799591064e-01" purity="5.0891041755676270e-01" nType="0">
        <Node pos="l" depth="1" NCoef="0" IVar="2" Cut="3.8916851806640625e+02" cType="1" res="-2.3109567165374756e-01" rms="4.3414127826690674e-01" purity="2.6408010721206665e-01" nType="0">
          <Node pos="l" depth="2" NCoef="0" IVar="15" Cut="3.9181030273437500e+01" cType="1" res="-3.5383257269859314e-01" rms="3.4075120091438293e-01" purity="1.3642784953117371e-01" nType="0">
            <Node pos="l" depth="3" NCoef="0" IVar="3" Cut="7.8031127929687500e+01" cType="1" res="-4.0784135460853577e-01" rms="2.7307829260826111e-01" purity="8.1580385565757751e-02" nType="0">
              <Node pos="l" depth="4" NCoef="0" IVar="-1" Cut="0.0000000000000000e+00" cType="1" res="-1.8194430740550160e-03" rms="2.1281844377517700e-01" purity="4.7529179602861404e-02" nType="-99"/>
              <Node pos="r" depth="4" NCoef="0" IVar="-1" Cut="0.0000000000000000e+00" cType="1" res="-1.3068958651274443e-03" rms="3.3161774277687073e-01" purity="1.2690706551074982e-01" nType="-99"/>
            </Node>
            <Node pos="r" depth="3" NCoef="0" IVar="-1" Cut="0.0000000000000000e+00" cType="1" res="-1.6893545398488641e-03" rms="4.3823954463005066e-01" purity="2.6817253232002258e-01" nType="-99"/>
          </Node>
          <Node pos="r" depth="2" NCoef="0" IVar="17" Cut="-9.3401757812500000e+02" cType="1" res="-2.9342189431190491e-02" rms="4.9190253019332886e-01" purity="4.7391346096992493e-01" nType="0">
            <Node pos="l" depth="3" NCoef="0" IVar="-1" Cut="0.0000000000000000e+00" cType="1" res="-1.7896547215059400e-03" rms="4.4023802876472473e-01" purity="2.6463347673416138e-01" nType="-99"/>
            <Node pos="r" depth="3" NCoef="0" IVar="7" Cut="9.5266181230545044e-01" cType="1" res="0.0000000000000000e+00" rms="0.0000000000000000e+00" purity="5.7732301950454712e-01" nType="0">
              <Node pos="l" depth="4" NCoef="0" IVar="-1" Cut="0.0000000000000000e+00" cType="1" res="3.0453202780336142e-03" rms="4.6282905340194702e-01" purity="6.7571973800659180e-01" nType="-99"/>
              <Node pos="r" depth="4" NCoef="0" IVar="-1" Cut="0.0000000000000000e+00" cType="1" res="-8.2282099174335599e-04" rms="4.8980516195297241e-01" purity="4.2211788892745972e-01" nType="-99"/>
            </Node>
          </Node>
        </Node>
        <Node pos="r" depth="1" NCoef="0" IVar="6" Cut="4.2282441258430481e-01" cType="1" res="2.5810137391090393e-01" rms="4.0080365538597107e-01" purity="7.9123610258102417e-01" nType="0">
          <Node pos="l" depth="2" NCoef="0" IVar="14" Cut="1.5166822671890259e+00" cType="1" res="1.6694456338882446e-01" rms="4.5679944753646851e-01" purity="6.9217467308044434e-01" nType="0">
            <Node pos="l" depth="3" NCoef="0" IVar="17" Cut="5.2549839019775391e+01" cType="1" res="2.4326102435588837e-01" rms="4.1702345013618469e-01" purity="7.7042376995086670e-01" nType="0">
              <Node pos="l" depth="4" NCoef="0" IVar="-1" Cut="0.0000000000000000e+00" cType="1" res="1.6555088805034757e-03" rms="4.6070879697799683e-01" purity="6.8488168716430664e-01" nType="-99"/>
              <Node pos="r" depth="4" NCoef="0" IVar="-1" Cut="0.0000000000000000e+00" cType="1" res="4.9701374955475330e-03" rms="3.3874922990798950e-01" purity="8.6607384681701660e-01" nType="-99"/>
            </Node>
            <Node pos="r" depth="3" NCoef="0" IVar="-1" Cut="0.0000000000000000e+00" cType="1" res="-4.5337752089835703e-04" rms="4.9376609921455383e-01" purity="4.6893343329429626e-01" nType="-99"/>
          </Node>
          <Node pos="r" depth="2" NCoef="0" IVar="6" Cut="5.8737689256668091e-01" cType="1" res="3.5018280148506165e-01" rms="3.0864456295967102e-01" purity="8.9130234718322754e-01" nType="0">
            <Node pos="l" depth="3" NCoef="0" IVar="1" Cut="1.1904761791229248e+00" cType="1" res="3.1135112047195435e-01" rms="3.5558462142944336e-01" purity="8.4906119108200073e-01" nType="0">
              <Node pos="l" depth="4" NCoef="0" IVar="-1" Cut="0.0000000000000000e+00" cType="1" res="4.0400405414402485e-03" rms="4.0503621101379395e-01" purity="7.9009139537811279e-01" nType="-99"/>
              <Node pos="r" depth="4" NCoef="0" IVar="-1" Cut="0.0000000000000000e+00" cType="1" res="5.2720634266734123e-03" rms="2.9359674453735352e-01" purity="9.0410655736923218e-01" nType="-99"/>
            </Node>
            <Node pos="r" depth="3" NCoef="0" IVar="-1" Cut="0.0000000000000000e+00" cType="1" res="6.2443604692816734e-03" rms="2.1207240223884583e-01" purity="9.5223319530487061e-01" nType="-99"/>
          </Node>
        </Node>
      </Node>
    </BinaryTree>
    <BinaryTree type="DecisionTree" boostWeight="1.0000000000000000e+00" itree="18">
      <Node pos="s" depth="0" NCoef="0" IVar="17" Cut="-9.3338293457031250e+02" cType="1" res="-1.7986647784709930e-02" rms="4.8460242152214050e-01" purity="4.9352419376373291e-01" nType="0">
        <Node pos="l" depth="1" NCoef="0" IVar="2" Cut="3.7123330688476562e+02" cType="1" res="0.0000000000000000e+00" rms="0.0000000000000000e+00" purity="1.2587413191795349e-01" nType="0">
          <Node pos="l" depth="2" NCoef="0" IVar="11" Cut="7.6370071411132812e+01" cType="1" res="0.0000000000000000e+00" rms="0.0000000000000000e+00" purity="7.7540956437587738e-02" nType="0">
            <Node pos="l" depth="3" NCoef="0" IVar="-1" Cut="0.0000000000000000e+00" cType="1" res="-1.2623036745935678e-03" rms="1.9616118073463440e-01" purity="4.0025312453508377e-02" nType="-99"/>
            <Node pos="r" depth="3" NCoef="0" IVar="-1" Cut="0.0000000000000000e+00" cType="1" res="-1.6340711154043674e-03" rms="3.4095153212547302e-01" purity="1.3446703553199768e-01" nType="-99"/>
          </Node>
          <Node pos="r" depth="2" NCoef="0" IVar="-1" Cut="0.0000000000000000e+00" cType="1" res="-1.4516892842948437e-03" rms="4.4471201300621033e-01" purity="2.7299237251281738e-01" nType="-99"/>
        </Node>
        <Node pos="r" depth="1" NCoef="0" IVar="0" Cut="4.4285712242126465e+00" cType="1" res="1.4631056785583496e-01" rms="4.6024599671363831e-01" purity="6.7039847373962402e-01" nType="0">
          <Node pos="l" depth="2" NCoef="0" IVar="11" Cut="9.4274391174316406e+01" cType="1" res="0.0000000000000000e+00" rms="0.0000000000000000e+00" purity="4.5984768867492676e-01" nType="0">
            <Node pos="l" depth="3" NCoef="0" IVar="-1" Cut="0.0000000000000000e+00" cType="1" res="-9.0720289153978229e-04" rms="4.3745529651641846e-01" purity="2.6541042327880859e-01" nType="-99"/>
            <Node pos="r" depth="3" NCoef="0" IVar="3" Cut="1.0203193664550781e+02" cType="1" res="0.0000000000000000e+00" rms="0.0000000000000000e+00" purity="5.9138226509094238e-01" nType="0">
              <Node pos="l" depth="4" NCoef="0" IVar="-1" Cut="0.0000000000000000e+00" cType="1" res="-8.3627062849700451e-04" rms="4.9372532963752747e-01" purity="4.5780441164970398e-01" nType="-99"/>
              <Node pos="r" depth="4" NCoef="0" IVar="-1" Cut="0.0000000000000000e+00" cType="1" res="3.8302524480968714e-03" rms="4.5187246799468994e-01" purity="7.0679557323455811e-01" nType="-99"/>
            </Node>
          </Node>
          <Node pos="r" depth="2" NCoef="0" IVar="14" Cut="2.2834842205047607e+00" cType="1" res="2.5001639127731323e-01" rms="4.0603506565093994e-01" purity="7.8434300422668457e-01" nType="0">
            <Node pos="l" depth="3" NCoef="0" IVar="6" Cut="4.6308726072311401e-01" cType="1" res="2.9236635565757751e-01" rms="3.7301203608512878e-01" purity="8.2842367887496948e-01" nType="0">
              <Node pos="l" depth="4" NCoef="0" IVar="1" Cut="1.1904761791229248e+00" cType="1" res="2.3467467725276947e-01" rms="4.2149436473846436e-01" purity="7.6466822624206543e-01" nType="0">
                <Node pos="l" depth="5" NCoef="0" IVar="18" Cut="1.1429513692855835e+00" cType="1" res="1.5050353109836578e-01" rms="4.6870335936546326e-01" purity="6.7174464464187622e-01" nType="0">
                  <Node pos="l" depth="6" NCoef="0" IVar="-1" Cut="0.0000000000000000e+00" cType="1" res="4.0705623105168343e-03" rms="4.1508445143699646e-01" purity="7.7609354257583618e-01" nType="-99"/>
